{"model":{"type":"GRUTimeStep","options":{"inputSize":1,"hiddenLayers":[20],"outputSize":1,"decayRate":0.999,"smoothEps":1e-8,"regc":0.000001,"clipval":5},"hiddenLayers":[{"updateGateInputMatrix":{"rows":20,"columns":1,"weights":{"0":0.17759336531162262,"1":-0.12536904215812683,"2":0.5080636739730835,"3":-0.3810787498950958,"4":-1.4545496702194214,"5":0.899240255355835,"6":-0.32486408948898315,"7":-0.598654568195343,"8":0.3924826979637146,"9":-0.5284484028816223,"10":0.7484590411186218,"11":0.5710740685462952,"12":0.507807195186615,"13":0.8817358613014221,"14":0.6077756881713867,"15":1.228208303451538,"16":0.1300872564315796,"17":0.8379001021385193,"18":-0.34205448627471924,"19":-0.4439128637313843}},"updateGateHiddenMatrix":{"rows":20,"columns":20,"weights":{"0":0.13775120675563812,"1":0.22676362097263336,"2":1.2945799827575684,"3":0.7461350560188293,"4":1.2390884160995483,"5":1.7901257276535034,"6":-0.15973569452762604,"7":-0.2738247513771057,"8":-1.1101140975952148,"9":-1.3798854351043701,"10":0.5129669904708862,"11":-0.7459790110588074,"12":0.6323533058166504,"13":-0.4299051761627197,"14":-0.03936713933944702,"15":0.8336197137832642,"16":1.9707157611846924,"17":0.5227859020233154,"18":-2.187725067138672,"19":-0.008982958272099495,"20":-0.5183154940605164,"21":-0.7637273669242859,"22":0.6351091861724854,"23":-0.08470211178064346,"24":-0.4349920451641083,"25":0.2196255773305893,"26":1.7153071165084839,"27":0.18315467238426208,"28":0.011844013817608356,"29":-0.05456164851784706,"30":-0.7205268144607544,"31":0.0911298394203186,"32":0.26238706707954407,"33":0.757135272026062,"34":0.2302485853433609,"35":0.8656732439994812,"36":0.6649964451789856,"37":-1.7572052478790283,"38":-1.1403189897537231,"39":-0.18658414483070374,"40":0.6882887482643127,"41":-0.3332175016403198,"42":0.19480490684509277,"43":-0.4620177149772644,"44":-0.20856215059757233,"45":0.4880601763725281,"46":0.18091385066509247,"47":-0.7458545565605164,"48":-0.4769010841846466,"49":0.5505971908569336,"50":2.284597635269165,"51":-0.5979658365249634,"52":-0.5500497221946716,"53":-0.9757723808288574,"54":0.12532179057598114,"55":0.3353242576122284,"56":-0.009171291254460812,"57":1.4118103981018066,"58":-0.5119356513023376,"59":-0.7060562968254089,"60":0.19684135913848877,"61":-0.18636564910411835,"62":1.2439045906066895,"63":-0.1165269985795021,"64":-0.2329212725162506,"65":-0.21318823099136353,"66":-0.32449275255203247,"67":-0.12116187810897827,"68":0.03871820494532585,"69":-0.12526212632656097,"70":-0.21271204948425293,"71":1.1286295652389526,"72":-0.16343241930007935,"73":0.9170500636100769,"74":0.3778230845928192,"75":0.1617334485054016,"76":0.27485305070877075,"77":-0.5438175797462463,"78":0.29897555708885193,"79":-0.5306458473205566,"80":-0.4042077362537384,"81":0.4162965416908264,"82":0.42268091440200806,"83":0.8225433230400085,"84":0.15316204726696014,"85":0.20625640451908112,"86":0.04556329920887947,"87":0.6589570045471191,"88":0.659938395023346,"89":-0.5306578278541565,"90":-1.5872015953063965,"91":0.06358299404382706,"92":0.5968894958496094,"93":0.2897090017795563,"94":0.34039321541786194,"95":-1.2437045574188232,"96":-0.3655635416507721,"97":-0.18457800149917603,"98":-0.7476857304573059,"99":0.6415327787399292,"100":0.6739100217819214,"101":0.14154134690761566,"102":0.6353040933609009,"103":-0.43399104475975037,"104":-0.08594769239425659,"105":-0.34613901376724243,"106":-0.8133164048194885,"107":0.4856480360031128,"108":0.49282485246658325,"109":-0.10785256326198578,"110":0.351080060005188,"111":-0.8025637865066528,"112":-0.3495130240917206,"113":-0.09674528986215591,"114":0.5646648406982422,"115":-0.8068335056304932,"116":0.5684629082679749,"117":-0.9240643978118896,"118":0.2637763023376465,"119":0.006540065631270409,"120":0.39655444025993347,"121":-1.465212345123291,"122":0.30520039796829224,"123":0.5641340613365173,"124":-1.0584772825241089,"125":0.24529139697551727,"126":0.8535463213920593,"127":0.017168261110782623,"128":0.4040188789367676,"129":-1.1005631685256958,"130":-1.5127663612365723,"131":-0.07696861028671265,"132":0.28053563833236694,"133":-0.056370750069618225,"134":-0.041946906596422195,"135":-0.647138237953186,"136":0.8099526166915894,"137":-1.3836991786956787,"138":-0.10398680716753006,"139":-0.5164641737937927,"140":-0.5308277010917664,"141":-0.7818384766578674,"142":-0.2556573450565338,"143":-0.10888122767210007,"144":-0.3081822395324707,"145":0.09294086694717407,"146":1.036802053451538,"147":-0.33682575821876526,"148":0.3369670510292053,"149":-0.48416364192962646,"150":-1.4186146259307861,"151":0.8237947821617126,"152":0.7505404949188232,"153":-0.8993288278579712,"154":-0.158295139670372,"155":0.34516391158103943,"156":0.4470284581184387,"157":-1.5722746849060059,"158":0.21934504806995392,"159":-0.6303067803382874,"160":-1.4050005674362183,"161":0.5800957083702087,"162":-1.1351581811904907,"163":0.2752784788608551,"164":-0.32726725935935974,"165":0.05745025724172592,"166":0.13879229128360748,"167":-0.6191732883453369,"168":0.3454204797744751,"169":0.5396585464477539,"170":1.0247764587402344,"171":0.03013811819255352,"172":0.31437206268310547,"173":-0.5804837346076965,"174":-1.6362310647964478,"175":0.3604530990123749,"176":-0.8761588335037231,"177":0.20458540320396423,"178":0.3049124479293823,"179":0.7551242113113403,"180":0.5325603485107422,"181":0.30817869305610657,"182":-0.46420857310295105,"183":0.26359471678733826,"184":0.7847058176994324,"185":0.6314377784729004,"186":-0.7621238231658936,"187":-0.3145357072353363,"188":-1.3971694707870483,"189":-0.8593574166297913,"190":0.3294786512851715,"191":-0.5911650657653809,"192":0.7628495097160339,"193":-1.5786136388778687,"194":-0.6238977909088135,"195":-0.39350321888923645,"196":1.251914381980896,"197":0.8949035406112671,"198":-0.7431389093399048,"199":0.14814315736293793,"200":1.4173094034194946,"201":-0.5900974869728088,"202":-0.052817657589912415,"203":0.121768057346344,"204":0.23841425776481628,"205":-1.226134181022644,"206":0.8771855235099792,"207":1.1791716814041138,"208":-0.11601445078849792,"209":-0.4536711275577545,"210":-1.1825803518295288,"211":0.19641274213790894,"212":0.008664366789162159,"213":0.0049647181294858456,"214":0.6465761065483093,"215":-1.7810174226760864,"216":-0.011173618957400322,"217":-0.06265441328287125,"218":-0.5822365283966064,"219":-0.7549661993980408,"220":-0.396190345287323,"221":0.6571850180625916,"222":0.8846428394317627,"223":0.11160475760698318,"224":-0.15746396780014038,"225":0.9265478253364563,"226":0.07375305891036987,"227":1.0049370527267456,"228":0.09086551517248154,"229":-1.0183181762695312,"230":0.8506031036376953,"231":-1.3032208681106567,"232":0.41369733214378357,"233":-1.0621365308761597,"234":0.2184741199016571,"235":-0.49079370498657227,"236":1.7255741357803345,"237":-0.6068328619003296,"238":-0.7032420039176941,"239":0.3348725140094757,"240":0.3716629147529602,"241":0.1588563174009323,"242":1.053860068321228,"243":-0.12217424064874649,"244":-0.4372672736644745,"245":0.2062557488679886,"246":-0.1908818632364273,"247":0.3970384895801544,"248":0.3599729835987091,"249":-0.7794981598854065,"250":-0.19422470033168793,"251":-0.6364814639091492,"252":-0.27249613404273987,"253":-0.04740346223115921,"254":0.6500089168548584,"255":-0.43327420949935913,"256":0.7585334777832031,"257":-0.5148597955703735,"258":-0.6042739748954773,"259":0.23277470469474792,"260":0.8425014019012451,"261":-0.3992169201374054,"262":-0.0025314970407634974,"263":0.44031691551208496,"264":0.2718851566314697,"265":0.7457446455955505,"266":-0.6675419807434082,"267":0.33359432220458984,"268":-0.5373475551605225,"269":-0.48294681310653687,"270":1.4012073278427124,"271":-1.1272289752960205,"272":0.5995337963104248,"273":0.16912265121936798,"274":0.15160886943340302,"275":-0.44135501980781555,"276":1.5224162340164185,"277":-0.3029994070529938,"278":-0.36577796936035156,"279":0.6696019172668457,"280":-0.020835470408201218,"281":-0.35706761479377747,"282":-0.13473215699195862,"283":0.3043692708015442,"284":-0.8706568479537964,"285":-0.04169204458594322,"286":0.13481929898262024,"287":-0.5331174731254578,"288":0.15484599769115448,"289":-0.3645721673965454,"290":-0.3431503176689148,"291":-0.24104823172092438,"292":0.06166154891252518,"293":-0.37051787972450256,"294":0.08530914783477783,"295":-0.4018142819404602,"296":0.2081606686115265,"297":-0.2836473882198334,"298":-0.35767877101898193,"299":-0.2250709980726242,"300":-0.16339454054832458,"301":0.031201763078570366,"302":0.5444819331169128,"303":-0.26132720708847046,"304":-1.4422950744628906,"305":-0.7699261903762817,"306":0.3017706274986267,"307":0.9914234280586243,"308":0.1769646406173706,"309":0.04127900302410126,"310":-1.7243642807006836,"311":-1.1600743532180786,"312":-0.5088595151901245,"313":0.04254638031125069,"314":0.539449155330658,"315":-0.8308340311050415,"316":0.003279631258919835,"317":-1.348039150238037,"318":0.6050055027008057,"319":0.552068293094635,"320":0.3371116816997528,"321":0.517566978931427,"322":0.4080828130245209,"323":0.04301504045724869,"324":0.5587461590766907,"325":1.169019341468811,"326":-0.5592007637023926,"327":-0.001788854249753058,"328":-0.8751312494277954,"329":-1.5782580375671387,"330":1.1559338569641113,"331":-1.139324426651001,"332":0.48423120379447937,"333":-1.9867533445358276,"334":-0.3887014389038086,"335":-0.4245380461215973,"336":2.263302803039551,"337":0.5938970446586609,"338":-0.6508545279502869,"339":-0.1247897669672966,"340":-0.2201850414276123,"341":-1.255528211593628,"342":-0.2740558087825775,"343":0.07444994896650314,"344":-0.007438819855451584,"345":-0.5443364977836609,"346":1.150070071220398,"347":-0.2739212214946747,"348":-0.20165586471557617,"349":0.04730973020195961,"350":-0.1489778757095337,"351":-0.4581865668296814,"352":-0.2463444173336029,"353":-0.12223348021507263,"354":0.2003994882106781,"355":-1.225486159324646,"356":-0.09555628150701523,"357":-0.9159819483757019,"358":-0.33979323506355286,"359":-0.8100561499595642,"360":0.9169445633888245,"361":0.31955525279045105,"362":0.43488505482673645,"363":0.06986020505428314,"364":0.9836581945419312,"365":0.9766834378242493,"366":-0.3426917791366577,"367":-0.369916707277298,"368":-0.7062622308731079,"369":-1.3390361070632935,"370":0.1479378342628479,"371":-0.24479420483112335,"372":0.372877836227417,"373":-1.070189356803894,"374":-0.04257645830512047,"375":-0.059478577226400375,"376":1.3782202005386353,"377":0.488532155752182,"378":-1.19691002368927,"379":0.23161247372627258,"380":-0.3403041660785675,"381":0.4213285744190216,"382":0.9064592123031616,"383":-0.6307067275047302,"384":0.15841372311115265,"385":-0.015383503399789333,"386":0.6195732355117798,"387":0.7190980911254883,"388":0.0814710482954979,"389":0.14881093800067902,"390":-0.47661855816841125,"391":0.1406320035457611,"392":0.033612411469221115,"393":-0.33758416771888733,"394":0.24268034100532532,"395":0.3176313638687134,"396":0.00309012015350163,"397":-0.985607385635376,"398":-0.3199361562728882,"399":0.10613562911748886}},"updateGateBias":{"rows":20,"columns":1,"weights":{"0":0,"1":0,"2":0,"3":0,"4":0,"5":0,"6":0,"7":0,"8":0,"9":0,"10":0,"11":0,"12":0,"13":0,"14":0,"15":0,"16":0,"17":0,"18":0,"19":0}},"resetGateInputMatrix":{"rows":20,"columns":1,"weights":{"0":0.7798438668251038,"1":0.7537689208984375,"2":0.6005204916000366,"3":0.35430845618247986,"4":0.22037367522716522,"5":-0.2511795461177826,"6":-1.1263121366500854,"7":0.561415433883667,"8":1.1268796920776367,"9":0.0661555603146553,"10":0.9094645977020264,"11":0.2812260091304779,"12":0.5677613019943237,"13":0.09614214301109314,"14":-0.608783483505249,"15":1.0753955841064453,"16":0.03690079227089882,"17":0.17409999668598175,"18":0.8299562335014343,"19":0.5111889243125916}},"resetGateHiddenMatrix":{"rows":20,"columns":20,"weights":{"0":-0.025965014472603798,"1":-0.5041776895523071,"2":0.17411193251609802,"3":-0.2650154232978821,"4":-0.0627332255244255,"5":-0.8328844308853149,"6":-0.4758102595806122,"7":-0.1918930560350418,"8":1.2253159284591675,"9":0.41281604766845703,"10":0.9245926141738892,"11":-0.019240805879235268,"12":-0.7284709215164185,"13":1.0843278169631958,"14":0.9320767521858215,"15":-0.07077796012163162,"16":-0.29992181062698364,"17":-0.5152848362922668,"18":0.837842583656311,"19":-0.40572160482406616,"20":-0.22683072090148926,"21":0.46761560440063477,"22":0.6885583996772766,"23":-0.33920255303382874,"24":0.2752198874950409,"25":-0.009212573058903217,"26":-0.19012635946273804,"27":0.7645704746246338,"28":0.4413110315799713,"29":0.15984182059764862,"30":0.5072133541107178,"31":0.1282772719860077,"32":0.24741046130657196,"33":0.2162424623966217,"34":0.40317559242248535,"35":0.2619221806526184,"36":0.5635046362876892,"37":-0.5199956893920898,"38":0.5815640091896057,"39":0.2188812643289566,"40":-0.25173914432525635,"41":0.4752552807331085,"42":0.06272117048501968,"43":0.5335288047790527,"44":0.583272397518158,"45":-0.4906533658504486,"46":-1.5780597925186157,"47":-0.3680255711078644,"48":-0.14260660111904144,"49":1.6392372846603394,"50":2.677290439605713,"51":0.13216283917427063,"52":-0.48689737915992737,"53":0.22758963704109192,"54":0.6632859706878662,"55":-1.1298418045043945,"56":-1.398500919342041,"57":1.581794023513794,"58":0.33645644783973694,"59":0.3134936988353729,"60":0.8296931982040405,"61":-0.023749329149723053,"62":1.108992338180542,"63":-0.07268950343132019,"64":0.3958035409450531,"65":-0.7942157983779907,"66":0.05811705440282822,"67":0.7063040137290955,"68":0.06797212362289429,"69":-0.059283941984176636,"70":-0.2775896191596985,"71":-0.08012083917856216,"72":-0.1386171579360962,"73":1.0504236221313477,"74":0.9911990761756897,"75":-0.23170410096645355,"76":0.30326026678085327,"77":-0.43726950883865356,"78":0.21222557127475739,"79":0.1168743148446083,"80":1.0867983102798462,"81":0.3830268085002899,"82":1.3756645917892456,"83":0.8755987882614136,"84":-0.47568339109420776,"85":0.30496418476104736,"86":0.10473140329122543,"87":0.5121789574623108,"88":0.11893421411514282,"89":-1.3776098489761353,"90":-1.2093366384506226,"91":0.5050262808799744,"92":0.4154001474380493,"93":-0.9590237140655518,"94":0.8059000968933105,"95":-0.014980446547269821,"96":1.0012764930725098,"97":-0.33278387784957886,"98":-0.3884870111942291,"99":0.19068005681037903,"100":0.2766750454902649,"101":0.6043009757995605,"102":0.652466356754303,"103":-0.6771110892295837,"104":0.07867730408906937,"105":-0.37621015310287476,"106":-0.5576796531677246,"107":0.3167169988155365,"108":0.8614360690116882,"109":-0.08167003095149994,"110":0.1412946879863739,"111":-0.732888400554657,"112":-0.440659761428833,"113":0.3295620381832123,"114":0.646148681640625,"115":-1.0110125541687012,"116":0.4646458923816681,"117":-1.1171627044677734,"118":-0.3913646638393402,"119":0.39939990639686584,"120":-0.5442333817481995,"121":-0.9385347366333008,"122":0.2734045088291168,"123":0.1406182199716568,"124":-0.46300002932548523,"125":0.2708570957183838,"126":1.098319411277771,"127":0.13263559341430664,"128":0.5208255052566528,"129":-0.021597830578684807,"130":-0.5906607508659363,"131":-0.15372700989246368,"132":0.31495267152786255,"133":0.3691349923610687,"134":-0.03660024330019951,"135":-0.42258715629577637,"136":0.2564477026462555,"137":-1.0328712463378906,"138":-0.1720515638589859,"139":-0.356972873210907,"140":0.5091547966003418,"141":-0.09703213721513748,"142":0.016943026334047318,"143":-0.049961816519498825,"144":-0.351731538772583,"145":-0.19348089396953583,"146":-0.12067772448062897,"147":-0.17908620834350586,"148":-0.04755115136504173,"149":0.007981930859386921,"150":-0.2382945567369461,"151":-0.6966588497161865,"152":-0.2220207154750824,"153":-0.19039560854434967,"154":0.3018568456172943,"155":-0.3438631594181061,"156":0.3881628215312958,"157":-0.5996927618980408,"158":-0.24589531123638153,"159":-0.4747902452945709,"160":-0.2563263773918152,"161":-0.7265453934669495,"162":-1.1877861022949219,"163":0.6728507876396179,"164":-0.6092240214347839,"165":0.17319662868976593,"166":1.0972858667373657,"167":-0.7682314515113831,"168":0.42066869139671326,"169":0.8059231638908386,"170":0.4049502909183502,"171":-0.3481988310813904,"172":0.26017922163009644,"173":-0.6016352772712708,"174":-1.2058299779891968,"175":0.15769745409488678,"176":-0.6556179523468018,"177":0.400430828332901,"178":-0.013980451039969921,"179":-0.04310005158185959,"180":0.5942801833152771,"181":-0.00836933497339487,"182":-0.22400619089603424,"183":-0.10534040629863739,"184":0.03757930546998978,"185":-0.3113846182823181,"186":-0.2303391844034195,"187":0.06362438201904297,"188":-0.49033743143081665,"189":-0.9833812713623047,"190":-0.13957881927490234,"191":-0.46503153443336487,"192":-0.023059150204062462,"193":-1.0453832149505615,"194":-0.051094163209199905,"195":-1.3071787357330322,"196":1.0662868022918701,"197":0.42073705792427063,"198":-0.8221372961997986,"199":-0.5317692756652832,"200":1.6284071207046509,"201":-1.2249547243118286,"202":-0.6813270449638367,"203":-0.5089395642280579,"204":-0.10952778160572052,"205":-1.2142024040222168,"206":0.7202235460281372,"207":0.7768903374671936,"208":0.37736061215400696,"209":0.09640444070100784,"210":-0.7316671013832092,"211":-0.3949927091598511,"212":-0.24989083409309387,"213":0.47039318084716797,"214":0.5311151146888733,"215":-1.782482624053955,"216":0.07073372602462769,"217":-0.3472835421562195,"218":-0.5601337552070618,"219":-1.2656710147857666,"220":-0.40333837270736694,"221":-0.34429100155830383,"222":0.3672634959220886,"223":0.44062408804893494,"224":0.1310664713382721,"225":-0.20082175731658936,"226":-0.09069326519966125,"227":-0.39247435331344604,"228":1.4904595613479614,"229":0.7590500116348267,"230":-1.0074340105056763,"231":1.174472451210022,"232":-0.475294291973114,"233":1.7590091228485107,"234":0.5934575796127319,"235":0.23426678776741028,"236":-0.7305094599723816,"237":-1.0450266599655151,"238":0.863300085067749,"239":-0.5789729952812195,"240":1.5611563920974731,"241":-0.05548778921365738,"242":-0.2476034164428711,"243":-0.20629185438156128,"244":0.31398263573646545,"245":-0.21156539022922516,"246":-0.06035779044032097,"247":0.013649459928274155,"248":0.14763562381267548,"249":-0.01970256306231022,"250":0.7575918436050415,"251":-0.6537769436836243,"252":0.08315020799636841,"253":-0.31775885820388794,"254":-0.03651897981762886,"255":-0.29377734661102295,"256":0.03413841128349304,"257":0.5726587176322937,"258":-0.3970230519771576,"259":-0.013065332546830177,"260":-0.44485676288604736,"261":-0.2603610157966614,"262":0.18323291838169098,"263":0.15330448746681213,"264":-0.15019096434116364,"265":0.13277040421962738,"266":-0.6735547184944153,"267":-0.410417377948761,"268":1.1990269422531128,"269":0.5201209187507629,"270":1.0191597938537598,"271":0.7648918032646179,"272":-0.09082504361867905,"273":0.6010928750038147,"274":0.3671899735927582,"275":0.31395116448402405,"276":-0.6115315556526184,"277":-0.5214250683784485,"278":0.37720173597335815,"279":-0.2917047441005707,"280":-0.42064982652664185,"281":-0.1259235441684723,"282":0.2059216946363449,"283":0.5104948282241821,"284":-0.4248926639556885,"285":-0.4433854818344116,"286":0.04296791926026344,"287":0.03507145494222641,"288":-0.6015632748603821,"289":0.34056979417800903,"290":-0.6206490993499756,"291":-0.15528899431228638,"292":-0.06428457051515579,"293":-0.052476752549409866,"294":0.13416147232055664,"295":-1.0534745454788208,"296":-0.5471718311309814,"297":0.21508099138736725,"298":0.08724723011255264,"299":0.18572279810905457,"300":0.5301936268806458,"301":-0.02668698877096176,"302":0.7050913572311401,"303":-1.579119324684143,"304":-0.6490221619606018,"305":-0.7946088314056396,"306":-0.04984726011753082,"307":-0.03898153826594353,"308":0.46102893352508545,"309":-0.48913607001304626,"310":-0.2615460455417633,"311":-0.37999698519706726,"312":-0.9192739129066467,"313":-0.18453717231750488,"314":0.1746925711631775,"315":0.09325354546308517,"316":0.5171139240264893,"317":-0.23488575220108032,"318":0.9176089763641357,"319":-1.103445053100586,"320":0.4852559268474579,"321":0.45374003052711487,"322":-0.14466063678264618,"323":-0.03327430784702301,"324":0.3129158020019531,"325":0.7754687666893005,"326":-0.5521810054779053,"327":-0.23834572732448578,"328":-1.1579289436340332,"329":-0.9685631394386292,"330":0.7528147101402283,"331":-0.7769795060157776,"332":0.4970027804374695,"333":-1.652906894683838,"334":-0.7163066864013672,"335":-1.0808275938034058,"336":1.4444252252578735,"337":1.0662000179290771,"338":-1.1978715658187866,"339":0.04247533902525902,"340":0.1811903864145279,"341":-0.32641705870628357,"342":-1.4571287631988525,"343":-0.025081349536776543,"344":-0.5167206525802612,"345":-1.076041579246521,"346":-0.299942284822464,"347":0.16073642671108246,"348":-0.8488910794258118,"349":0.8249858021736145,"350":0.8407812118530273,"351":-0.4220585823059082,"352":-0.7157049775123596,"353":-0.9368059039115906,"354":-0.624451220035553,"355":-1.6681897640228271,"356":-1.4462580680847168,"357":0.7786380648612976,"358":0.21324115991592407,"359":-0.24596524238586426,"360":0.5626547932624817,"361":-0.41659215092658997,"362":0.5932585000991821,"363":-0.07652466744184494,"364":0.31115463376045227,"365":-0.25877490639686584,"366":0.18604007363319397,"367":-0.31534337997436523,"368":1.2129513025283813,"369":1.2015199661254883,"370":1.4026542901992798,"371":0.5598164796829224,"372":-0.9193651676177979,"373":1.1951179504394531,"374":0.4103328585624695,"375":0.5593916177749634,"376":-0.9709268808364868,"377":-0.35603854060173035,"378":0.6223644614219666,"379":-0.7696635127067566,"380":-0.15672025084495544,"381":0.7728503346443176,"382":0.9615383148193359,"383":-0.1339593529701233,"384":0.5056999325752258,"385":0.1458648443222046,"386":-0.5217382907867432,"387":0.8003830909729004,"388":-0.019718699157238007,"389":0.1281430572271347,"390":0.017673777416348457,"391":-0.24361534416675568,"392":0.223898783326149,"393":-0.31177112460136414,"394":0.13564519584178925,"395":0.559554398059845,"396":0.5040544867515564,"397":-0.3939748704433441,"398":0.020898111164569855,"399":0.377453476190567}},"resetGateBias":{"rows":20,"columns":1,"weights":{"0":0,"1":0,"2":0,"3":0,"4":0,"5":0,"6":0,"7":0,"8":0,"9":0,"10":0,"11":0,"12":0,"13":0,"14":0,"15":0,"16":0,"17":0,"18":0,"19":0}},"cellWriteInputMatrix":{"rows":20,"columns":1,"weights":{"0":0.003634967375546694,"1":-0.1775403916835785,"2":-0.2221899777650833,"3":0.19259658455848694,"4":0.9765554070472717,"5":0.041224874556064606,"6":-0.48869892954826355,"7":-0.3068394660949707,"8":0.3199648857116699,"9":0.11467771977186203,"10":0.5661661624908447,"11":-0.016375603154301643,"12":-0.6062126755714417,"13":0.4443645179271698,"14":0.48205259442329407,"15":-0.6316961646080017,"16":-0.0967540368437767,"17":0.29276353120803833,"18":-0.7008705139160156,"19":-0.12812303006649017}},"cellWriteHiddenMatrix":{"rows":20,"columns":20,"weights":{"0":-0.990946888923645,"1":0.10076413303613663,"2":1.6106163263320923,"3":0.9705302715301514,"4":0.8501651287078857,"5":0.4730193018913269,"6":0.2782687842845917,"7":0.06183084100484848,"8":-0.07396155595779419,"9":-1.3742786645889282,"10":-0.3583415150642395,"11":0.08145248144865036,"12":0.8330760598182678,"13":0.2464171051979065,"14":0.8976865410804749,"15":-0.04368596151471138,"16":1.416137456893921,"17":-0.8736739754676819,"18":-0.43190959095954895,"19":0.4046562910079956,"20":0.28692445158958435,"21":-0.15734487771987915,"22":0.635591983795166,"23":-0.5469436645507812,"24":-0.7429969310760498,"25":-0.07662486284971237,"26":-0.3780158460140228,"27":0.3276069760322571,"28":0.1789831817150116,"29":0.8082668781280518,"30":1.5755037069320679,"31":-0.6903662085533142,"32":-0.8456882238388062,"33":0.13097356259822845,"34":-0.0033652062993496656,"35":0.1401730477809906,"36":-0.08540752530097961,"37":-0.202457994222641,"38":0.5722603797912598,"39":0.019765809178352356,"40":-0.29769954085350037,"41":-0.4633854329586029,"42":0.4556671679019928,"43":0.06860055774450302,"44":-0.4008268117904663,"45":0.93842613697052,"46":0.3567444086074829,"47":-0.25086891651153564,"48":0.8930909037590027,"49":-0.00030188256641849875,"50":-0.1418885737657547,"51":0.22097279131412506,"52":0.09093582630157471,"53":0.16010816395282745,"54":0.2350732535123825,"55":0.6371638178825378,"56":0.20954878628253937,"57":-0.250370055437088,"58":0.47752463817596436,"59":-0.15933194756507874,"60":-0.4856607913970947,"61":0.37745270133018494,"62":-0.3489364683628082,"63":-0.048325344920158386,"64":0.04701865464448929,"65":0.751626193523407,"66":-0.4086740016937256,"67":0.1516910195350647,"68":0.3349093496799469,"69":0.5811328291893005,"70":0.47158491611480713,"71":0.30271464586257935,"72":0.2938264310359955,"73":-0.35066846013069153,"74":-0.6708731651306152,"75":-0.06446150690317154,"76":-0.17132799327373505,"77":0.18871429562568665,"78":0.30509254336357117,"79":0.27995219826698303,"80":0.3725864589214325,"81":-0.1778896600008011,"82":0.6071277856826782,"83":0.02345176972448826,"84":-1.049854040145874,"85":0.8377324938774109,"86":-0.5714107751846313,"87":0.4811112880706787,"88":-0.24796481430530548,"89":-0.10732439160346985,"90":0.9562025666236877,"91":-0.450671523809433,"92":-0.11948611587285995,"93":-1.2122299671173096,"94":0.04438195750117302,"95":0.5450350046157837,"96":0.3435381054878235,"97":-0.32482242584228516,"98":-0.018001491203904152,"99":-0.5008699893951416,"100":-0.1553468406200409,"101":0.3062797784805298,"102":-0.40700262784957886,"103":-0.4900550842285156,"104":-0.41210508346557617,"105":0.5582156181335449,"106":-0.12036086618900299,"107":0.1391696035861969,"108":0.7341848611831665,"109":-0.5426462292671204,"110":0.2882271707057953,"111":-0.28821101784706116,"112":0.47123265266418457,"113":-0.7634297609329224,"114":-0.700971782207489,"115":1.00369393825531,"116":0.7616141438484192,"117":0.11891984939575195,"118":0.39941293001174927,"119":0.24850210547447205,"120":0.19521024823188782,"121":-0.40527644753456116,"122":-0.8721181154251099,"123":0.6899826526641846,"124":-0.2315537929534912,"125":-0.17197656631469727,"126":0.9057265520095825,"127":0.49107077717781067,"128":0.4247613549232483,"129":-0.20089952647686005,"130":-2.1362056732177734,"131":0.45339760184288025,"132":0.6603285074234009,"133":0.2661416828632355,"134":0.3177984654903412,"135":-0.8816682696342468,"136":-0.35229504108428955,"137":-0.7087891101837158,"138":0.30353355407714844,"139":0.49476274847984314,"140":-0.20854254066944122,"141":0.31716662645339966,"142":-0.2271137535572052,"143":-0.312240868806839,"144":0.30179041624069214,"145":-0.10295634716749191,"146":-0.31079524755477905,"147":-0.2267911285161972,"148":-0.3969574272632599,"149":-0.04998264089226723,"150":0.13646231591701508,"151":0.6795185208320618,"152":0.13722869753837585,"153":-0.022849833592772484,"154":0.25664839148521423,"155":-0.8836000561714172,"156":-0.03212055191397667,"157":-0.11989898979663849,"158":1.5113328695297241,"159":0.7429863810539246,"160":1.2990964651107788,"161":0.12295550107955933,"162":-0.38715094327926636,"163":-0.6542107462882996,"164":-0.513195812702179,"165":-1.407734990119934,"166":0.39085838198661804,"167":0.44072097539901733,"168":-0.2212812304496765,"169":-0.8334436416625977,"170":-0.0546184778213501,"171":-1.1707466840744019,"172":-0.6276465654373169,"173":-0.5619481205940247,"174":0.012522788718342781,"175":-1.1919022798538208,"176":0.9935406446456909,"177":-0.16491931676864624,"178":-0.7839828729629517,"179":-0.19719961285591125,"180":-0.04463969171047211,"181":0.09821760654449463,"182":-0.50008225440979,"183":-0.40263745188713074,"184":0.2387993037700653,"185":-0.1701606661081314,"186":0.03748287633061409,"187":-0.15560844540596008,"188":-0.36286139488220215,"189":-0.20392948389053345,"190":0.467425674200058,"191":0.058223750442266464,"192":-0.20137490332126617,"193":0.21746811270713806,"194":-0.19709891080856323,"195":0.02452048286795616,"196":-0.06968910992145538,"197":0.5059624314308167,"198":-0.5961877703666687,"199":0.06348729133605957,"200":-0.407938152551651,"201":-0.6258803009986877,"202":0.13712209463119507,"203":-0.7449215054512024,"204":-0.44096502661705017,"205":-0.16645999252796173,"206":0.30894866585731506,"207":-0.168641597032547,"208":0.10251598805189133,"209":0.016848109662532806,"210":0.677655041217804,"211":0.04807025566697121,"212":-0.5692062377929688,"213":0.156133234500885,"214":-0.17722024023532867,"215":0.563281774520874,"216":0.04460795596241951,"217":0.3387030065059662,"218":0.10148198902606964,"219":-0.6286609172821045,"220":0.9078978300094604,"221":-0.7656185030937195,"222":-1.3814009428024292,"223":-0.47697046399116516,"224":1.1786689758300781,"225":-0.4546124339103699,"226":0.1357552409172058,"227":-0.40485119819641113,"228":-0.01777755469083786,"229":0.7340198159217834,"230":0.5734024047851562,"231":0.21384115517139435,"232":-0.4605124890804291,"233":0.5200356245040894,"234":-0.3525969088077545,"235":-0.20805329084396362,"236":-0.6420690417289734,"237":0.5955447554588318,"238":-0.4696810841560364,"239":-0.16002792119979858,"240":-0.45311740040779114,"241":0.5143052935600281,"242":-0.5501663088798523,"243":-0.00451181223616004,"244":-0.027121836319565773,"245":0.7059139013290405,"246":-0.6269727945327759,"247":0.4872724711894989,"248":0.10356099903583527,"249":0.6508439183235168,"250":0.5728492140769958,"251":0.31592226028442383,"252":0.33133092522621155,"253":0.08265270292758942,"254":-0.7780899405479431,"255":-0.2943364381790161,"256":-0.5749493837356567,"257":-0.3523540794849396,"258":1.1388126611709595,"259":0.5092419385910034,"260":0.5934690833091736,"261":-0.1239796131849289,"262":-1.2842966318130493,"263":-0.29597532749176025,"264":0.8654361367225647,"265":0.08355927467346191,"266":-0.527077853679657,"267":-0.9220902919769287,"268":-0.8339783549308777,"269":1.0390691757202148,"270":0.4463830292224884,"271":-0.0043597836047410965,"272":-0.29314377903938293,"273":-0.318371057510376,"274":-0.7952454686164856,"275":0.43679457902908325,"276":-0.9109634160995483,"277":0.946929931640625,"278":-0.3691868782043457,"279":0.053883615881204605,"280":-0.19743242859840393,"281":-0.7345530390739441,"282":0.826625645160675,"283":0.7145237922668457,"284":0.015258477069437504,"285":0.397169828414917,"286":0.7296656370162964,"287":-0.02226419188082218,"288":-0.061114802956581116,"289":-0.0055167037062346935,"290":-0.6216176152229309,"291":-0.01855139434337616,"292":0.06606858223676682,"293":0.2482880800962448,"294":0.06493593752384186,"295":-0.2541864514350891,"296":0.21456266939640045,"297":-0.3509146273136139,"298":-0.0683036595582962,"299":-0.4383167028427124,"300":-0.08302488923072815,"301":-1.2407469749450684,"302":-1.3434605598449707,"303":-1.4091708660125732,"304":-0.36892300844192505,"305":-1.162530779838562,"306":1.4816149473190308,"307":-0.7379924654960632,"308":1.2047057151794434,"309":-0.8312006592750549,"310":-0.4937233626842499,"311":0.5314181447029114,"312":-0.4821556508541107,"313":0.28400105237960815,"314":-0.5200322270393372,"315":1.1453913450241089,"316":0.3655071556568146,"317":-0.11765012890100479,"318":0.4247378706932068,"319":-1.8440922498703003,"320":-0.3984466791152954,"321":-0.024646030738949776,"322":0.7857361435890198,"323":0.5293131470680237,"324":-0.19976361095905304,"325":0.34446606040000916,"326":-0.0550784133374691,"327":0.22214467823505402,"328":0.0038078539073467255,"329":0.20087645947933197,"330":-0.4696119725704193,"331":-0.08502015471458435,"332":0.2929728329181671,"333":-0.2705915868282318,"334":0.3285287022590637,"335":0.6279298067092896,"336":0.10260627418756485,"337":-0.4452877938747406,"338":0.14012950658798218,"339":0.0540778823196888,"340":-0.3465534448623657,"341":0.47591525316238403,"342":0.39081498980522156,"343":-0.5075392127037048,"344":-0.6494425535202026,"345":0.15335102379322052,"346":-0.5837714672088623,"347":0.4150664806365967,"348":0.02998567745089531,"349":-0.2566398084163666,"350":1.0449153184890747,"351":0.28325268626213074,"352":0.31002581119537354,"353":-0.25094687938690186,"354":0.031397756189107895,"355":1.0987151861190796,"356":0.4683654308319092,"357":-0.10564196109771729,"358":0.4148283302783966,"359":0.22859913110733032,"360":0.5299147963523865,"361":0.2276332527399063,"362":-0.7776138186454773,"363":-0.6454461812973022,"364":-1.1237962245941162,"365":-1.079913854598999,"366":0.7662097811698914,"367":-0.355939656496048,"368":-0.8787149786949158,"369":0.28828877210617065,"370":0.9136409163475037,"371":0.18875433504581451,"372":-0.5106623768806458,"373":-0.2099134922027588,"374":0.27272987365722656,"375":-0.08984915912151337,"376":-0.6172757744789124,"377":0.8220944404602051,"378":-0.8080222010612488,"379":0.46064549684524536,"380":0.04804689809679985,"381":0.48421230912208557,"382":0.3071341812610626,"383":-0.16173508763313293,"384":0.012670964002609253,"385":-0.019718950614333153,"386":-1.0469661951065063,"387":0.021642649546265602,"388":0.20098429918289185,"389":0.9311442971229553,"390":1.260279655456543,"391":-0.4478641748428345,"392":-0.7835037708282471,"393":0.45773065090179443,"394":-0.27134671807289124,"395":-0.39111727476119995,"396":-0.5314481258392334,"397":0.16243405640125275,"398":0.783355712890625,"399":0.15060670673847198}},"cellWriteBias":{"rows":20,"columns":1,"weights":{"0":-0.1538831740617752,"1":-0.34842225909233093,"2":0.4711679518222809,"3":0.23323561251163483,"4":-0.3604696989059448,"5":0.19919739663600922,"6":0.03234993666410446,"7":0.6209732294082642,"8":0.5972332954406738,"9":0.6059470176696777,"10":-0.5970080494880676,"11":-0.10168393701314926,"12":-0.7597798705101013,"13":1.0071613788604736,"14":0.6306847929954529,"15":-0.3304821252822876,"16":-0.37458300590515137,"17":-0.5216765403747559,"18":0.6037341952323914,"19":-0.27627554535865784}}}],"outputConnector":{"rows":1,"columns":20,"weights":{"0":-0.4000692665576935,"1":0.6918995380401611,"2":0.8857244253158569,"3":0.4058521091938019,"4":0.19700583815574646,"5":0.5460819005966187,"6":-1.0084240436553955,"7":-0.18757203221321106,"8":0.2106737196445465,"9":-1.0409942865371704,"10":-0.028340954333543777,"11":-1.0412237644195557,"12":0.18319307267665863,"13":-0.35470691323280334,"14":0.007549092173576355,"15":-0.2687329351902008,"16":1.3342585563659668,"17":0.4726448953151703,"18":0.3142339587211609,"19":0.43755075335502625}},"output":{"rows":1,"columns":1,"weights":{"0":0.8055389523506165}},"inputLookup":null,"inputLookupLength":null,"outputLookup":null,"outputLookupLength":null},"metadata":{"dataPoints":24,"minSales":6548161.2,"maxSales":13845221.28,"range":7297060.079999999,"trainingParams":{"errorThreshold":0.0001,"actualIterations":49999},"lastSalesDate":{"year":2024,"month":12},"createdAt":"2025-04-25T05-18-29-451Z","modelType":"GRUTimeStep"}}