{"model":{"type":"GRUTimeStep","options":{"inputSize":1,"hiddenLayers":[20],"outputSize":1,"decayRate":0.999,"smoothEps":1e-8,"regc":0.000001,"clipval":5},"hiddenLayers":[{"updateGateInputMatrix":{"rows":20,"columns":1,"weights":{"0":0.2912881374359131,"1":0.34957200288772583,"2":0.20669448375701904,"3":0.4533661901950836,"4":-0.7347100377082825,"5":-0.29631882905960083,"6":0.1032254695892334,"7":-0.09340249747037888,"8":0.5376362800598145,"9":-0.4812503159046173,"10":0.012896091677248478,"11":-0.618243932723999,"12":0.23697246611118317,"13":0.12111426144838333,"14":-0.02605496719479561,"15":-0.2565966844558716,"16":-0.20696738362312317,"17":-0.6292309761047363,"18":-0.26561108231544495,"19":0.20576465129852295}},"updateGateHiddenMatrix":{"rows":20,"columns":20,"weights":{"0":0.35707002878189087,"1":-0.41305863857269287,"2":-1.300718069076538,"3":0.0397198423743248,"4":-0.03847743943333626,"5":1.4443740844726562,"6":-0.6904529929161072,"7":-0.14057576656341553,"8":0.4144383370876312,"9":-0.1496637761592865,"10":-0.175257608294487,"11":-0.630823016166687,"12":0.6056658625602722,"13":1.5777958631515503,"14":0.6541586518287659,"15":-0.026120254769921303,"16":0.46680948138237,"17":0.9067030549049377,"18":-1.4201692342758179,"19":-0.7530788779258728,"20":-0.05826546996831894,"21":-0.28097203373908997,"22":-1.7793370485305786,"23":-0.47815200686454773,"24":-0.754802405834198,"25":0.30522119998931885,"26":-1.2555989027023315,"27":0.18689778447151184,"28":0.2972310185432434,"29":0.718650221824646,"30":0.007788350339978933,"31":0.46161335706710815,"32":0.1608937531709671,"33":1.1664453744888306,"34":-0.004910527262836695,"35":-0.3243945240974426,"36":0.8524363040924072,"37":0.23157426714897156,"38":-0.34694454073905945,"39":-0.16342279314994812,"40":-1.099161148071289,"41":0.42153769731521606,"42":-0.06840978562831879,"43":-1.1231135129928589,"44":-0.5636281967163086,"45":-0.06955968588590622,"46":-0.14592953026294708,"47":-0.02862403355538845,"48":0.2551930844783783,"49":-0.17386049032211304,"50":-0.0843210518360138,"51":-0.2356724888086319,"52":0.18740437924861908,"53":0.5666834712028503,"54":-0.14658311009407043,"55":-0.08163750171661377,"56":0.7947989702224731,"57":1.786189079284668,"58":-0.9594972729682922,"59":0.2206864207983017,"60":-0.30818799138069153,"61":-0.632132351398468,"62":-1.1485135555267334,"63":-0.2859702706336975,"64":-0.3704061508178711,"65":0.4436875581741333,"66":-0.7893504500389099,"67":0.4376607835292816,"68":0.4994930028915405,"69":0.2427060306072235,"70":0.32103821635246277,"71":-0.49177467823028564,"72":0.9264833331108093,"73":0.7594925761222839,"74":0.2765734791755676,"75":-0.24977603554725647,"76":0.8159896731376648,"77":-0.14620697498321533,"78":-0.8631002902984619,"79":-0.5295735001564026,"80":0.2507903277873993,"81":0.26532137393951416,"82":0.2823859751224518,"83":0.6498287916183472,"84":0.3640650808811188,"85":0.11164352297782898,"86":0.6764578223228455,"87":-0.525934636592865,"88":-0.547543466091156,"89":-1.1004576683044434,"90":0.02455047145485878,"91":0.011874542571604252,"92":-0.9055328369140625,"93":-0.17394103109836578,"94":-0.09415125846862793,"95":-0.3189724385738373,"96":-0.4200880229473114,"97":0.026677416637539864,"98":0.40129172801971436,"99":-0.3401760756969452,"100":0.5836954116821289,"101":-0.09165196865797043,"102":0.37497368454933167,"103":0.2573215663433075,"104":0.024444567039608955,"105":0.975965142250061,"106":0.4462756812572479,"107":0.39802610874176025,"108":-0.12356998026371002,"109":0.9627392292022705,"110":0.40309780836105347,"111":-0.49059030413627625,"112":0.28551366925239563,"113":0.028761520981788635,"114":0.4680318832397461,"115":-0.3742653727531433,"116":-0.35974812507629395,"117":-0.6131192445755005,"118":-0.17735515534877777,"119":-0.13014937937259674,"120":-0.8698710799217224,"121":0.1550150364637375,"122":0.5090358257293701,"123":-0.4987502694129944,"124":0.13100145757198334,"125":0.352364718914032,"126":0.5028651356697083,"127":-0.5436275005340576,"128":0.12995582818984985,"129":-0.1170075386762619,"130":-0.271536260843277,"131":-1.0953861474990845,"132":0.3350698947906494,"133":0.27059051394462585,"134":0.39206621050834656,"135":-0.3145548403263092,"136":-0.5230381488800049,"137":-0.2416563332080841,"138":-0.6033881306648254,"139":0.05297369137406349,"140":-0.479923814535141,"141":0.23917752504348755,"142":-1.2682486772537231,"143":-0.38114452362060547,"144":0.6665206551551819,"145":0.6472930312156677,"146":-0.33270251750946045,"147":0.1396649181842804,"148":-0.18042929470539093,"149":-0.48444515466690063,"150":-0.20251576602458954,"151":0.09668576717376709,"152":-0.15192420780658722,"153":1.1408936977386475,"154":0.32043924927711487,"155":0.4841157793998718,"156":-0.1519784778356552,"157":0.6666840314865112,"158":-0.9871187806129456,"159":0.0653231218457222,"160":-0.2451634407043457,"161":-0.5159151554107666,"162":-0.4795357584953308,"163":-0.42216193675994873,"164":-0.5476577877998352,"165":0.026677552610635757,"166":-0.38737910985946655,"167":0.09397140890359879,"168":0.7047730684280396,"169":0.37025338411331177,"170":0.3303004503250122,"171":0.45779985189437866,"172":0.3956890106201172,"173":0.4711318016052246,"174":0.30855682492256165,"175":-0.6482732892036438,"176":0.40952268242836,"177":0.4676341414451599,"178":-0.3077126443386078,"179":-0.4830916225910187,"180":-0.5671907663345337,"181":0.24684226512908936,"182":0.3416232168674469,"183":-0.3737228214740753,"184":-0.12786954641342163,"185":-0.7925571203231812,"186":0.131567120552063,"187":-0.2127765417098999,"188":0.06676570326089859,"189":-0.38809335231781006,"190":-0.047797173261642456,"191":0.27340391278266907,"192":-0.2342732548713684,"193":-0.31082969903945923,"194":-0.18035084009170532,"195":0.28262636065483093,"196":0.04668758064508438,"197":-0.36922529339790344,"198":1.359810471534729,"199":0.231405571103096,"200":-1.0489081144332886,"201":0.1756567656993866,"202":0.7967299222946167,"203":-0.29100432991981506,"204":0.1760350912809372,"205":-0.048444584012031555,"206":0.04165283590555191,"207":-0.04458829388022423,"208":0.03362138569355011,"209":-0.32183048129081726,"210":0.09087715297937393,"211":0.6075178980827332,"212":0.0018272320739924908,"213":0.026697950437664986,"214":0.14134347438812256,"215":-0.690705418586731,"216":-0.02170894853770733,"217":0.11206869781017303,"218":-0.2770027220249176,"219":-0.3073156177997589,"220":1.1083362102508545,"221":-0.1507744938135147,"222":0.1125340461730957,"223":1.171543836593628,"224":-0.8431604504585266,"225":0.7485328912734985,"226":0.425849974155426,"227":0.3589228093624115,"228":-0.4450877010822296,"229":-0.11392732709646225,"230":-0.3832409977912903,"231":-0.9968354105949402,"232":-0.49375417828559875,"233":0.852146327495575,"234":-0.21651560068130493,"235":0.5604424476623535,"236":-0.0338166207075119,"237":1.2542561292648315,"238":-0.9387191534042358,"239":0.40294787287712097,"240":-0.8645555377006531,"241":0.21642127633094788,"242":0.1343407928943634,"243":-0.837352454662323,"244":1.125091314315796,"245":0.4836066961288452,"246":-0.023339275270700455,"247":-0.3599298894405365,"248":0.32532772421836853,"249":-0.26338672637939453,"250":0.5736669301986694,"251":0.28914037346839905,"252":0.4034271538257599,"253":-0.6958299875259399,"254":0.5832662582397461,"255":-0.7036055326461792,"256":-0.44493111968040466,"257":-1.1574375629425049,"258":0.24241147935390472,"259":-0.3367888033390045,"260":-0.8377462029457092,"261":0.4065273404121399,"262":0.8232343196868896,"263":-0.8258892893791199,"264":0.3192824125289917,"265":-0.1540052890777588,"266":0.5203073024749756,"267":-0.3754851818084717,"268":-0.09683901071548462,"269":-0.79306560754776,"270":-0.5741775035858154,"271":-0.21641673147678375,"272":-0.5022923350334167,"273":-1.191874384880066,"274":-0.33392712473869324,"275":-0.24308422207832336,"276":-0.024456018581986427,"277":-0.1727367788553238,"278":1.3607062101364136,"279":0.7816634178161621,"280":-0.6579086780548096,"281":-0.060637570917606354,"282":0.11731850355863571,"283":-0.1825796216726303,"284":0.07265915721654892,"285":0.34277668595314026,"286":0.0400405153632164,"287":0.34053874015808105,"288":0.04807897284626961,"289":-0.5211172103881836,"290":-0.3118472993373871,"291":0.4349994957447052,"292":0.2744580805301666,"293":0.7862745523452759,"294":-0.13897621631622314,"295":0.07901658117771149,"296":0.2933143675327301,"297":0.7046641707420349,"298":-0.8699644207954407,"299":0.1530921757221222,"300":-0.7912804484367371,"301":-0.18722398579120636,"302":-0.5162394642829895,"303":-0.39109987020492554,"304":-0.4387606382369995,"305":-0.9121766686439514,"306":-0.7812182307243347,"307":-0.42594000697135925,"308":0.021757809445261955,"309":0.5388457179069519,"310":0.3785587251186371,"311":0.5186444520950317,"312":0.38276708126068115,"313":0.6394511461257935,"314":0.35021325945854187,"315":-0.003709352109581232,"316":0.06455837190151215,"317":0.29461508989334106,"318":-1.2441751956939697,"319":-0.49182796478271484,"320":0.47883719205856323,"321":-0.03912390023469925,"322":0.18535803258419037,"323":-0.016349485144019127,"324":-0.15010395646095276,"325":0.6867552995681763,"326":0.24195890128612518,"327":-0.4155813753604889,"328":-0.30492547154426575,"329":-1.0131747722625732,"330":-0.05949191749095917,"331":-0.3474043607711792,"332":-0.11733203381299973,"333":0.12327045947313309,"334":-0.21027745306491852,"335":0.12436369061470032,"336":-0.11840260773897171,"337":0.3254280686378479,"338":-0.7345713973045349,"339":0.08628606051206589,"340":0.5564424991607666,"341":0.3143794536590576,"342":0.8141196370124817,"343":0.3790771961212158,"344":-0.5680501461029053,"345":0.18445730209350586,"346":0.07084053754806519,"347":-0.236497163772583,"348":-0.27646318078041077,"349":-1.1580730676651,"350":-0.012907013297080994,"351":0.06020978093147278,"352":-0.366629958152771,"353":-0.19941163063049316,"354":0.22795966267585754,"355":-0.40141791105270386,"356":0.20242665708065033,"357":-0.06584304571151733,"358":0.463282972574234,"359":0.016094094142317772,"360":0.12085284292697906,"361":0.24640417098999023,"362":0.5525122880935669,"363":0.23645417392253876,"364":0.6001729965209961,"365":-0.14758116006851196,"366":-0.29697906970977783,"367":-0.11940685659646988,"368":0.1003798171877861,"369":-0.9702582955360413,"370":0.522915244102478,"371":-0.24472641944885254,"372":-0.27384302020072937,"373":-1.0723141431808472,"374":0.7745011448860168,"375":-0.736913800239563,"376":-0.5569480657577515,"377":-1.6196423768997192,"378":1.6710726022720337,"379":-0.4412294030189514,"380":-0.7951517105102539,"381":-0.08960776031017303,"382":-0.5304139256477356,"383":-0.45338359475135803,"384":0.2554340660572052,"385":0.01065202709287405,"386":-0.2465873658657074,"387":0.3044569492340088,"388":0.27642822265625,"389":-0.19342143833637238,"390":0.1669696420431137,"391":0.7527844905853271,"392":0.10145020484924316,"393":0.2847931981086731,"394":-0.0035004382953047752,"395":-0.0076605589129030704,"396":0.3778592646121979,"397":0.01920156180858612,"398":-0.6683434844017029,"399":-0.13988755643367767}},"updateGateBias":{"rows":20,"columns":1,"weights":{"0":0,"1":0,"2":0,"3":0,"4":0,"5":0,"6":0,"7":0,"8":0,"9":0,"10":0,"11":0,"12":0,"13":0,"14":0,"15":0,"16":0,"17":0,"18":0,"19":0}},"resetGateInputMatrix":{"rows":20,"columns":1,"weights":{"0":0.006087400019168854,"1":-0.03881768137216568,"2":0.31783270835876465,"3":-0.1414891481399536,"4":0.5923630595207214,"5":0.4040122628211975,"6":0.17992854118347168,"7":0.31361955404281616,"8":0.5038131475448608,"9":0.6714723706245422,"10":0.4980284571647644,"11":0.4701319634914398,"12":0.7088404893875122,"13":0.3723069429397583,"14":0.7011880874633789,"15":0.7596177458763123,"16":0.23769347369670868,"17":0.5766294598579407,"18":0.13639472424983978,"19":0.4966485798358917}},"resetGateHiddenMatrix":{"rows":20,"columns":20,"weights":{"0":-0.5010846853256226,"1":0.2360602617263794,"2":0.29849356412887573,"3":-0.38297152519226074,"4":-0.180292546749115,"5":0.4751751720905304,"6":-0.9897910952568054,"7":-0.2418404370546341,"8":0.22219479084014893,"9":-0.6232041716575623,"10":-0.7744020819664001,"11":1.2517640590667725,"12":0.12328268587589264,"13":0.3502104878425598,"14":-0.7904375195503235,"15":0.5440449118614197,"16":0.32317402958869934,"17":1.0772327184677124,"18":0.13109050691127777,"19":0.6167770028114319,"20":0.3561730980873108,"21":-0.2769700288772583,"22":-0.397988498210907,"23":-0.09737258404493332,"24":-0.7450585961341858,"25":0.1939256638288498,"26":-0.17567946016788483,"27":0.21676796674728394,"28":0.2487185001373291,"29":0.0515575185418129,"30":0.025367097929120064,"31":0.35526174306869507,"32":0.01684502884745598,"33":0.6473951935768127,"34":-0.15976019203662872,"35":-0.05980224162340164,"36":0.6890504956245422,"37":0.15885710716247559,"38":-0.38622012734413147,"39":-0.10244753211736679,"40":0.053723663091659546,"41":-0.39803582429885864,"42":0.1977081298828125,"43":1.0186104774475098,"44":0.9133419394493103,"45":0.4538711905479431,"46":1.152848243713379,"47":0.4934597611427307,"48":0.387490838766098,"49":0.08856423944234848,"50":0.07016931474208832,"51":-1.1480457782745361,"52":-0.2421913892030716,"53":-0.21432211995124817,"54":0.23289602994918823,"55":0.32210466265678406,"56":-1.152374267578125,"57":-0.028553610667586327,"58":0.23917627334594727,"59":-0.6219337582588196,"60":-0.16889113187789917,"61":0.3621581196784973,"62":0.02053997665643692,"63":0.2959563434123993,"64":1.0213987827301025,"65":0.29552826285362244,"66":0.8279468417167664,"67":-0.12722532451152802,"68":-0.21663907170295715,"69":-1.1630570888519287,"70":-0.11165722459554672,"71":-0.8248229026794434,"72":-0.2397041618824005,"73":-0.35813868045806885,"74":-0.46423858404159546,"75":0.4984607696533203,"76":-1.2698087692260742,"77":-0.44633856415748596,"78":0.207116961479187,"79":0.015631943941116333,"80":0.019305681809782982,"81":-0.8164496421813965,"82":-1.1454499959945679,"83":-0.2412252128124237,"84":-0.005095985252410173,"85":0.38581737875938416,"86":-0.22209466993808746,"87":0.36517906188964844,"88":1.0146440267562866,"89":0.15018746256828308,"90":0.8734113574028015,"91":0.25888657569885254,"92":0.6203283667564392,"93":0.057985372841358185,"94":0.5225253105163574,"95":-0.45664361119270325,"96":-0.002020170446485281,"97":-0.6230369806289673,"98":0.10342077165842056,"99":-0.7138686180114746,"100":0.2618567645549774,"101":-1.3689851760864258,"102":-0.09308638423681259,"103":0.8759790658950806,"104":0.43543821573257446,"105":0.8980844616889954,"106":0.9071052074432373,"107":0.8098948001861572,"108":0.5119743943214417,"109":-0.573660671710968,"110":0.07768433541059494,"111":-1.0744516849517822,"112":0.5441797971725464,"113":-0.13865023851394653,"114":0.2880488932132721,"115":0.08401796221733093,"116":-1.0285412073135376,"117":-0.13320684432983398,"118":-0.3029341697692871,"119":-0.23614545166492462,"120":0.3671528398990631,"121":0.18549035489559174,"122":-0.1119958758354187,"123":0.46844127774238586,"124":0.7193668484687805,"125":1.2795588970184326,"126":0.7101089358329773,"127":-0.4140515923500061,"128":0.023578239604830742,"129":-1.2116867303848267,"130":-0.3265846371650696,"131":-0.01916257105767727,"132":-0.19492973387241364,"133":-0.9283215999603271,"134":-0.6048017144203186,"135":0.7543945908546448,"136":-0.6150527596473694,"137":-0.45238232612609863,"138":0.3622469902038574,"139":0.28274255990982056,"140":0.3590262234210968,"141":-0.3878597319126129,"142":-0.19490674138069153,"143":0.050009459257125854,"144":-0.44704487919807434,"145":0.49439290165901184,"146":-0.18757998943328857,"147":0.3156382143497467,"148":0.35734060406684875,"149":0.06536374241113663,"150":-0.417300283908844,"151":0.24879349768161774,"152":-0.04016890376806259,"153":0.3116993308067322,"154":-0.3815309405326843,"155":-0.06131979823112488,"156":0.21452970802783966,"157":0.46054932475090027,"158":-0.47473952174186707,"159":0.15521079301834106,"160":-0.6517090201377869,"161":-0.33191218972206116,"162":-0.1446845531463623,"163":-0.7373279929161072,"164":-0.14706048369407654,"165":-0.09185250103473663,"166":-0.6601146459579468,"167":-0.14467786252498627,"168":0.46925902366638184,"169":0.19179488718509674,"170":0.6152406930923462,"171":0.7824041247367859,"172":0.3474906384944916,"173":-0.4195275604724884,"174":0.7650877237319946,"175":-1.0996873378753662,"176":0.5353784561157227,"177":-1.064219355583191,"178":0.48159369826316833,"179":-0.9971588850021362,"180":0.6496555805206299,"181":-0.4128159284591675,"182":-0.004863027948886156,"183":1.1026989221572876,"184":1.3124758005142212,"185":0.48983219265937805,"186":1.1786915063858032,"187":0.37339016795158386,"188":0.23411498963832855,"189":-0.5464348793029785,"190":0.23233208060264587,"191":-0.9187452793121338,"192":-0.033965595066547394,"193":-0.8201615214347839,"194":0.41047507524490356,"195":-0.3650297522544861,"196":-1.1505192518234253,"197":-0.6443138718605042,"198":0.785584568977356,"199":-0.3926170766353607,"200":-0.06679575890302658,"201":-0.23721329867839813,"202":-0.039601702243089676,"203":-0.36060479283332825,"204":0.275871604681015,"205":0.3168141841888428,"206":0.21512019634246826,"207":0.3489994406700134,"208":0.9542518258094788,"209":-0.12408409267663956,"210":0.7562115788459778,"211":-0.3829384744167328,"212":0.433459609746933,"213":0.1357921063899994,"214":0.9156363010406494,"215":-1.0524230003356934,"216":-0.20891831815242767,"217":-0.821636438369751,"218":0.9447536468505859,"219":-0.6655720472335815,"220":-1.2249170541763306,"221":0.050882503390312195,"222":-0.4621925354003906,"223":-1.1809991598129272,"224":-0.035965222865343094,"225":-0.6331546306610107,"226":-0.28603363037109375,"227":-0.36145156621932983,"228":0.5635042190551758,"229":-0.25312721729278564,"230":0.17483438551425934,"231":1.3864022493362427,"232":0.18557946383953094,"233":0.02851220592856407,"234":0.020994998514652252,"235":-0.45110127329826355,"236":0.33945775032043457,"237":-0.29670020937919617,"238":0.6091590523719788,"239":0.15184693038463593,"240":0.06298898160457611,"241":-0.4820271134376526,"242":-0.26267141103744507,"243":-0.09541892260313034,"244":0.5431106090545654,"245":0.6212151050567627,"246":0.4777940511703491,"247":0.5643573999404907,"248":1.0731003284454346,"249":0.7677114605903625,"250":1.116080403327942,"251":-0.22783184051513672,"252":0.2092943787574768,"253":-0.17374344170093536,"254":0.8202231526374817,"255":-0.7178936004638672,"256":-0.5564550161361694,"257":-0.9122887253761292,"258":0.6744402050971985,"259":-0.7051757574081421,"260":1.1794567108154297,"261":-0.6219550371170044,"262":-0.17356419563293457,"263":1.177527666091919,"264":0.7108221054077148,"265":0.9299999475479126,"266":1.0883022546768188,"267":0.40108513832092285,"268":0.24507540464401245,"269":-0.0032306592911481857,"270":-0.10961533337831497,"271":-0.7709046006202698,"272":0.21009962260723114,"273":0.21843378245830536,"274":-0.1544208824634552,"275":0.5548037886619568,"276":-0.9155387282371521,"277":0.8486393690109253,"278":-0.8048804998397827,"279":-0.13219882547855377,"280":-0.41115328669548035,"281":-0.3951433300971985,"282":-0.15606337785720825,"283":-0.6475580334663391,"284":-0.16876639425754547,"285":0.21411767601966858,"286":-0.5093501210212708,"287":0.231449693441391,"288":0.8204958438873291,"289":0.014736169017851353,"290":0.6868874430656433,"291":-0.11914651840925217,"292":0.5568851828575134,"293":0.14820367097854614,"294":0.7451779246330261,"295":-0.8287420868873596,"296":0.13321805000305176,"297":-0.5448929071426392,"298":0.7198789715766907,"299":-0.7430700659751892,"300":-0.43904635310173035,"301":-0.1021859273314476,"302":0.036746732890605927,"303":-0.930192768573761,"304":-0.09059836715459824,"305":0.13789834082126617,"306":-0.1221795305609703,"307":0.5452128052711487,"308":0.7963335514068604,"309":0.07417987287044525,"310":0.4163426160812378,"311":-0.189375102519989,"312":0.6410279273986816,"313":-0.3250593841075897,"314":0.5489233732223511,"315":-0.9002038836479187,"316":0.3131925165653229,"317":-0.2991037368774414,"318":0.7477594614028931,"319":-0.4338967502117157,"320":-0.12585434317588806,"321":-0.7932765483856201,"322":-0.44766637682914734,"323":-0.13132984936237335,"324":0.12917941808700562,"325":0.9065107107162476,"326":-0.09275586158037186,"327":0.03303807973861694,"328":0.2999837398529053,"329":-0.19283834099769592,"330":0.2606143653392792,"331":0.3056427538394928,"332":0.4943081736564636,"333":-0.3577013909816742,"334":0.01098242960870266,"335":0.041600294411182404,"336":0.10933205485343933,"337":-0.3678382933139801,"338":0.16706298291683197,"339":-0.18464797735214233,"340":0.20650221407413483,"341":-0.6050041317939758,"342":-1.4759161472320557,"343":-0.37108922004699707,"344":0.09967964142560959,"345":0.17260947823524475,"346":-0.16373156011104584,"347":0.4305027723312378,"348":0.8662347793579102,"349":0.8819109201431274,"350":0.6176695823669434,"351":-0.5999643802642822,"352":0.49979686737060547,"353":0.6659924387931824,"354":0.39355766773223877,"355":-0.26795902848243713,"356":-0.14096583425998688,"357":-0.1605345904827118,"358":-0.27759024500846863,"359":-0.2874731719493866,"360":0.9690366387367249,"361":-0.7234315872192383,"362":-1.044460654258728,"363":0.704612135887146,"364":0.3564283847808838,"365":0.6113970875740051,"366":0.21772754192352295,"367":0.6936957240104675,"368":0.341111958026886,"369":-0.38999179005622864,"370":0.5280189514160156,"371":-0.9824600219726562,"372":0.1039731428027153,"373":0.2836785912513733,"374":0.38439998030662537,"375":-0.028185101225972176,"376":-0.6160366535186768,"377":-0.11513923108577728,"378":-0.02916943095624447,"379":-0.6244826912879944,"380":-0.5576363205909729,"381":-0.05658043175935745,"382":0.04031749442219734,"383":-0.6611869931221008,"384":-0.010588604025542736,"385":0.10705694556236267,"386":-0.5142080187797546,"387":0.015294731594622135,"388":0.7411752343177795,"389":0.0027688220143318176,"390":0.8009838461875916,"391":-0.004942752420902252,"392":0.3580060303211212,"393":-0.0803624764084816,"394":0.816692054271698,"395":-0.8618742823600769,"396":0.052222855389118195,"397":-0.6763830780982971,"398":0.6104230284690857,"399":-0.8084728717803955}},"resetGateBias":{"rows":20,"columns":1,"weights":{"0":0,"1":0,"2":0,"3":0,"4":0,"5":0,"6":0,"7":0,"8":0,"9":0,"10":0,"11":0,"12":0,"13":0,"14":0,"15":0,"16":0,"17":0,"18":0,"19":0}},"cellWriteInputMatrix":{"rows":20,"columns":1,"weights":{"0":-0.0700487419962883,"1":-0.30620425939559937,"2":0.4688120186328888,"3":-0.35304880142211914,"4":0.11409351229667664,"5":-0.23209886252880096,"6":-0.24200564622879028,"7":0.09725271165370941,"8":0.24239645898342133,"9":0.2932451367378235,"10":-0.12408152967691422,"11":-0.3612683415412903,"12":-0.11375924199819565,"13":-0.11183157563209534,"14":-0.25365185737609863,"15":0.2240135371685028,"16":-0.09722685813903809,"17":-0.07625054568052292,"18":0.07430999726057053,"19":0.2319532036781311}},"cellWriteHiddenMatrix":{"rows":20,"columns":20,"weights":{"0":-0.04656552895903587,"1":-0.2021307349205017,"2":0.24162110686302185,"3":0.40559178590774536,"4":-0.6533284783363342,"5":-0.3871477246284485,"6":0.1948603093624115,"7":0.3071032464504242,"8":-0.4741527736186981,"9":0.7792371511459351,"10":-0.44176241755485535,"11":0.1644468456506729,"12":-0.2992306649684906,"13":-0.5121514201164246,"14":-0.30345743894577026,"15":0.4254468083381653,"16":0.07010271400213242,"17":0.5542206168174744,"18":-0.9056605696678162,"19":0.37985241413116455,"20":-0.2911977469921112,"21":-0.2315012365579605,"22":0.14534857869148254,"23":-0.3615395426750183,"24":0.46411705017089844,"25":-0.4017959535121918,"26":0.2407970279455185,"27":0.0748969092965126,"28":0.03853677958250046,"29":-0.36200082302093506,"30":0.17782238125801086,"31":-0.409354567527771,"32":0.2586228549480438,"33":0.11753354966640472,"34":-0.03964592516422272,"35":0.2334577739238739,"36":-0.3952518105506897,"37":-0.2860483229160309,"38":0.6229351162910461,"39":-0.2101721167564392,"40":-0.0625099465250969,"41":0.30381202697753906,"42":-0.5323739647865295,"43":0.06399058550596237,"44":0.07813284546136856,"45":0.7756091952323914,"46":0.4683230221271515,"47":0.14188629388809204,"48":-0.08950987458229065,"49":-1.3011258840560913,"50":0.10694294422864914,"51":-0.19081054627895355,"52":-0.2592706084251404,"53":0.2238551378250122,"54":0.030452391132712364,"55":-0.25683367252349854,"56":0.06503134220838547,"57":0.0460297055542469,"58":0.3121740221977234,"59":0.20461829006671906,"60":-0.11414019763469696,"61":0.26349982619285583,"62":-0.4706187844276428,"63":-0.5224738121032715,"64":-0.5582199096679688,"65":0.521881103515625,"66":-0.39603957533836365,"67":-0.11477531492710114,"68":-0.9554398059844971,"69":-0.15861234068870544,"70":-0.9131181240081787,"71":0.26721394062042236,"72":-0.29020315408706665,"73":0.4959299564361572,"74":-0.7030108571052551,"75":0.7152059674263,"76":0.5439177751541138,"77":0.7939226031303406,"78":-1.2617545127868652,"79":0.9074314832687378,"80":-0.044456418603658676,"81":-0.1524432748556137,"82":-0.24043521285057068,"83":0.42913997173309326,"84":-0.48196083307266235,"85":-0.16479328274726868,"86":-0.5902248620986938,"87":0.07186148315668106,"88":0.2080596387386322,"89":-0.9058008790016174,"90":-0.4290658235549927,"91":0.6152823567390442,"92":0.13290630280971527,"93":0.20711322128772736,"94":-0.3310661315917969,"95":-0.05756676197052002,"96":0.27722516655921936,"97":0.7553803324699402,"98":-0.3343445062637329,"99":0.25885361433029175,"100":0.3589993715286255,"101":-0.4163088798522949,"102":0.020880909636616707,"103":-0.06778132915496826,"104":-0.7636415958404541,"105":0.5325309634208679,"106":0.35502856969833374,"107":0.23081286251544952,"108":0.15781332552433014,"109":0.22301256656646729,"110":-0.22055810689926147,"111":-0.5260748863220215,"112":0.22520963847637177,"113":1.3674240112304688,"114":-0.5098544359207153,"115":0.5428630113601685,"116":0.18364648520946503,"117":0.3601447641849518,"118":-0.3940804898738861,"119":0.47145548462867737,"120":-0.7477055788040161,"121":0.22928664088249207,"122":-0.07260359823703766,"123":-0.014819449745118618,"124":-0.3668358623981476,"125":0.06330827623605728,"126":-0.2397661954164505,"127":0.4080033004283905,"128":-0.178756445646286,"129":0.06959493458271027,"130":-0.7555264830589294,"131":0.9270725846290588,"132":0.43579795956611633,"133":0.011799783445894718,"134":-0.9673880338668823,"135":0.6283553838729858,"136":0.5160700678825378,"137":1.236101746559143,"138":-0.9581332802772522,"139":0.9129189252853394,"140":-0.41060441732406616,"141":0.14187414944171906,"142":0.2724541127681732,"143":-0.41103851795196533,"144":0.7396715879440308,"145":0.12464748322963715,"146":0.06911344081163406,"147":-0.32271087169647217,"148":0.15727433562278748,"149":0.7474959492683411,"150":0.15139415860176086,"151":0.0950436070561409,"152":0.023938259109854698,"153":-0.22376559674739838,"154":0.15368765592575073,"155":0.26737162470817566,"156":-0.20068740844726562,"157":-0.012400409206748009,"158":-1.0635929107666016,"159":-0.2004300206899643,"160":0.13031955063343048,"161":-0.329578697681427,"162":0.1505100429058075,"163":0.6234782934188843,"164":-0.06083044409751892,"165":0.27570438385009766,"166":0.30320486426353455,"167":0.0313873216509819,"168":0.39063915610313416,"169":-0.39337337017059326,"170":0.28149399161338806,"171":0.17904825508594513,"172":0.6065499186515808,"173":-0.384677529335022,"174":0.2109055370092392,"175":0.08067279309034348,"176":-0.12748709321022034,"177":0.32237187027931213,"178":-0.06408913433551788,"179":-0.45039498805999756,"180":-0.21035978198051453,"181":0.11586882174015045,"182":1.0851294994354248,"183":0.34615111351013184,"184":0.9144923090934753,"185":-0.2749828100204468,"186":0.12127958238124847,"187":-0.2813786268234253,"188":0.9875565767288208,"189":-0.11955026537179947,"190":1.456423044204712,"191":0.06521747261285782,"192":0.17889602482318878,"193":-1.7653706073760986,"194":1.8884062767028809,"195":-1.5814093351364136,"196":-0.4769696891307831,"197":-1.6994355916976929,"198":1.1436073780059814,"199":-1.3806629180908203,"200":-0.20212098956108093,"201":-0.2898513078689575,"202":-0.22822926938533783,"203":0.2539359927177429,"204":-0.26967108249664307,"205":0.6732379794120789,"206":0.3634895086288452,"207":0.16078616678714752,"208":0.47352397441864014,"209":-0.9052370190620422,"210":0.02668989822268486,"211":0.5606981515884399,"212":0.7825079560279846,"213":-0.06940644979476929,"214":-0.026030346751213074,"215":-0.037493739277124405,"216":-0.008418945595622063,"217":0.3143145442008972,"218":-0.024800080806016922,"219":-0.12632514536380768,"220":0.6390057802200317,"221":0.031961340457201004,"222":-0.7215948104858398,"223":-0.4679792821407318,"224":0.4348898231983185,"225":0.062069397419691086,"226":0.12258590012788773,"227":-0.01984100416302681,"228":0.40276244282722473,"229":0.21201221644878387,"230":0.39550870656967163,"231":-0.8916692137718201,"232":-0.09105734527111053,"233":0.07272496074438095,"234":0.3380208909511566,"235":-0.3643794655799866,"236":-0.19163112342357635,"237":-0.6116199493408203,"238":1.0610103607177734,"239":-0.20364437997341156,"240":0.3456478714942932,"241":0.0021173085551708937,"242":-1.0898863077163696,"243":0.16127175092697144,"244":0.007382399868220091,"245":-0.27359458804130554,"246":0.0883377343416214,"247":0.3867763876914978,"248":0.009515964426100254,"249":-0.1699308305978775,"250":-0.10122523456811905,"251":-0.6599916219711304,"252":-0.6638962030410767,"253":0.34896793961524963,"254":-0.07021312415599823,"255":0.04853619635105133,"256":-0.25153210759162903,"257":0.34346920251846313,"258":-0.5320042371749878,"259":0.007492545060813427,"260":-0.15625029802322388,"261":0.22899363934993744,"262":0.5141263008117676,"263":-0.4141959547996521,"264":0.3699698746204376,"265":-0.6810720562934875,"266":-0.7660950422286987,"267":-0.03393584489822388,"268":0.09920243173837662,"269":1.77907133102417,"270":-0.4775908589363098,"271":-0.30956947803497314,"272":-0.2760145664215088,"273":-0.43137502670288086,"274":-0.40194734930992126,"275":0.3737720251083374,"276":-0.13579638302326202,"277":-0.30080023407936096,"278":0.42548155784606934,"279":0.6450375914573669,"280":-0.25309136509895325,"281":-0.1226734146475792,"282":-0.10728521645069122,"283":0.21304115653038025,"284":-0.21884341537952423,"285":0.9298354387283325,"286":0.47995057702064514,"287":-0.07209107279777527,"288":0.26471245288848877,"289":-1.0107330083847046,"290":-0.1336294561624527,"291":0.49680790305137634,"292":0.945932149887085,"293":-0.22110716998577118,"294":-0.2511419653892517,"295":0.027444908395409584,"296":-0.03331858664751053,"297":0.3401870131492615,"298":-0.11349912732839584,"299":-0.09599251300096512,"300":0.268875390291214,"301":0.18239131569862366,"302":0.190846785902977,"303":-0.31479576230049133,"304":-0.06169148534536362,"305":-0.5820624232292175,"306":-0.938997745513916,"307":-0.08415653556585312,"308":-0.0902993306517601,"309":0.4998161792755127,"310":-0.1812344342470169,"311":-0.17345690727233887,"312":-0.854673445224762,"313":0.22886908054351807,"314":-0.1844780147075653,"315":-0.22984813153743744,"316":0.32420802116394043,"317":0.14362268149852753,"318":-0.006939047947525978,"319":0.12149803340435028,"320":0.6700487732887268,"321":0.1048949807882309,"322":-0.1447308212518692,"323":-0.22262616455554962,"324":0.5810367465019226,"325":-0.7341016530990601,"326":0.6123841404914856,"327":-0.10885848104953766,"328":0.08476845920085907,"329":0.858863890171051,"330":0.48343703150749207,"331":-1.0676162242889404,"332":-0.6471849083900452,"333":-0.15681923925876617,"334":0.4916023910045624,"335":-0.6785752177238464,"336":-0.34303808212280273,"337":-0.6524803638458252,"338":0.7232248187065125,"339":-0.3962232768535614,"340":0.43021073937416077,"341":0.45742079615592957,"342":-0.039948128163814545,"343":-0.11882540583610535,"344":0.46181315183639526,"345":-0.4978630244731903,"346":0.14289915561676025,"347":-0.3490978181362152,"348":-0.5087588429450989,"349":1.3597536087036133,"350":-0.23887908458709717,"351":-0.4762478470802307,"352":-0.4447149932384491,"353":-0.2524731159210205,"354":-0.09818149358034134,"355":0.46252912282943726,"356":-0.5912798643112183,"357":-0.3610886037349701,"358":0.43147772550582886,"359":-0.00013384033809415996,"360":0.05483182519674301,"361":-0.48489609360694885,"362":0.31403017044067383,"363":0.29374608397483826,"364":-0.5832856297492981,"365":-0.14114685356616974,"366":0.21481728553771973,"367":0.667236328125,"368":0.28495651483535767,"369":-0.5801473259925842,"370":0.11603425443172455,"371":0.3353064954280853,"372":-0.20700739324092865,"373":-0.025435328483581543,"374":-0.11167491227388382,"375":-0.35055431723594666,"376":0.30898794531822205,"377":0.1723068654537201,"378":-0.25859472155570984,"379":-0.17917726933956146,"380":0.24133066833019257,"381":0.27722489833831787,"382":0.4370949864387512,"383":-0.3307754695415497,"384":0.23524019122123718,"385":-0.546093225479126,"386":-0.13738113641738892,"387":-0.21654105186462402,"388":-0.22417832911014557,"389":0.7061814665794373,"390":-0.02814837358891964,"391":-0.6650141477584839,"392":-0.8696955442428589,"393":0.22174714505672455,"394":-0.020238324999809265,"395":0.17825746536254883,"396":-0.20955491065979004,"397":-0.00735726160928607,"398":0.2932073175907135,"399":0.1247779130935669}},"cellWriteBias":{"rows":20,"columns":1,"weights":{"0":-0.31575825810432434,"1":-0.2486877590417862,"2":-0.0921686515212059,"3":0.4347274899482727,"4":-0.10596833378076553,"5":-0.031786348670721054,"6":-0.16578659415245056,"7":0.034201957285404205,"8":0.20170272886753082,"9":0.16756553947925568,"10":0.16691510379314423,"11":0.10094158351421356,"12":0.7120201587677002,"13":0.07216768711805344,"14":0.3369900584220886,"15":-0.09060865640640259,"16":-0.10167428851127625,"17":0.030258676037192345,"18":0.002303906949236989,"19":-0.25401994585990906}}}],"outputConnector":{"rows":1,"columns":20,"weights":{"0":-0.5297439098358154,"1":0.9277303814888,"2":-0.3365025520324707,"3":-0.0776023417711258,"4":-0.5519824624061584,"5":0.3541724681854248,"6":-0.26448050141334534,"7":1.303011417388916,"8":0.050207220017910004,"9":-0.2506844103336334,"10":0.014590416103601456,"11":0.19466429948806763,"12":-0.9734034538269043,"13":-0.6380640268325806,"14":0.19917665421962738,"15":-0.43152040243148804,"16":-1.193801760673523,"17":-0.12410350143909454,"18":-1.289096713066101,"19":0.4175216853618622}},"output":{"rows":1,"columns":1,"weights":{"0":0.9405128955841064}},"inputLookup":null,"inputLookupLength":null,"outputLookup":null,"outputLookupLength":null},"metadata":{"dataPoints":24,"minSales":761820.25,"maxSales":13845221.28,"range":13083401.03,"trainingParams":{"errorThreshold":0.0001,"actualIterations":100000},"lastSalesDate":{"year":2025,"month":4},"createdAt":"2025-04-25T06-47-25-417Z","modelType":"GRUTimeStep"}}