{"model":{"type":"GRUTimeStep","options":{"inputSize":1,"hiddenLayers":[20],"outputSize":1,"decayRate":0.999,"smoothEps":1e-8,"regc":0.000001,"clipval":5},"hiddenLayers":[{"updateGateInputMatrix":{"rows":20,"columns":1,"weights":{"0":0.6334131956100464,"1":-0.24530580639839172,"2":0.22783184051513672,"3":-0.450493723154068,"4":0.9591652750968933,"5":1.122173547744751,"6":0.3769146800041199,"7":0.6416535377502441,"8":0.9331713318824768,"9":0.2040240615606308,"10":-0.04968488588929176,"11":0.3226172626018524,"12":0.5715223550796509,"13":0.4322108030319214,"14":1.7717972993850708,"15":-0.2319384664297104,"16":-0.36214858293533325,"17":0.6393316388130188,"18":-0.006583866663277149,"19":0.0027536298148334026}},"updateGateHiddenMatrix":{"rows":20,"columns":20,"weights":{"0":0.2810435891151428,"1":0.5306364297866821,"2":-0.11581487208604813,"3":-1.0341516733169556,"4":0.6611486077308655,"5":0.11713040620088577,"6":-0.16498799622058868,"7":-0.08666324615478516,"8":0.9719010591506958,"9":-0.26353392004966736,"10":0.5271090865135193,"11":0.3058064877986908,"12":0.3310735821723938,"13":0.3067312240600586,"14":-0.01622581295669079,"15":0.6810452342033386,"16":-0.7026132941246033,"17":-0.1809879094362259,"18":-0.1390189379453659,"19":0.4747030436992645,"20":-0.3992994725704193,"21":0.766314685344696,"22":-0.2964247465133667,"23":-0.2709762454032898,"24":0.735156774520874,"25":-0.15669310092926025,"26":-0.13438397645950317,"27":0.5168282389640808,"28":0.6850322484970093,"29":0.40590566396713257,"30":-0.022733259946107864,"31":-0.22513575851917267,"32":-0.5801748037338257,"33":0.9913167953491211,"34":-0.40435945987701416,"35":-0.007786356378346682,"36":0.270334392786026,"37":0.20710667967796326,"38":-0.2754881680011749,"39":-0.2546737492084503,"40":-0.07704004645347595,"41":0.949961245059967,"42":-0.9683104157447815,"43":-1.1434170007705688,"44":-0.48662981390953064,"45":0.7253917455673218,"46":-0.31954121589660645,"47":0.16719861328601837,"48":-0.37723681330680847,"49":0.8077297210693359,"50":-0.7015911340713501,"51":1.2276633977890015,"52":-1.3386973142623901,"53":0.5057551860809326,"54":-0.6241499781608582,"55":-0.26834967732429504,"56":0.8373101949691772,"57":0.4529486894607544,"58":0.17416919767856598,"59":1.2641773223876953,"60":0.23269137740135193,"61":-0.49743175506591797,"62":0.8481189012527466,"63":-0.8544765710830688,"64":1.9048709869384766,"65":-0.8289965391159058,"66":1.3172858953475952,"67":1.2517589330673218,"68":1.501307725906372,"69":-0.3879600763320923,"70":-0.0892556682229042,"71":-1.2390358448028564,"72":0.44419288635253906,"73":1.4097188711166382,"74":-0.4528260827064514,"75":-0.339220255613327,"76":-0.20814509689807892,"77":0.378824919462204,"78":-1.1776559352874756,"79":0.13198921084403992,"80":0.5546030402183533,"81":-0.5647562742233276,"82":0.5433571934700012,"83":-1.5406817197799683,"84":-0.6068640351295471,"85":-0.1937827616930008,"86":1.3516265153884888,"87":1.7668184041976929,"88":-0.9376894235610962,"89":0.2893272936344147,"90":0.7367457747459412,"91":-0.8967607617378235,"92":-0.934511661529541,"93":1.1742452383041382,"94":-0.32629087567329407,"95":0.7527371048927307,"96":-0.15731553733348846,"97":0.23870687186717987,"98":0.3397657573223114,"99":-0.45849645137786865,"100":-0.9315483570098877,"101":-1.0203922986984253,"102":0.931000292301178,"103":1.6100454330444336,"104":0.3777819871902466,"105":-0.450022429227829,"106":-0.11459942162036896,"107":0.0926009863615036,"108":0.45204252004623413,"109":-0.2094101905822754,"110":0.6367511749267578,"111":-0.0671273022890091,"112":0.518729567527771,"113":-1.7867244482040405,"114":-0.7355273962020874,"115":-1.1594303846359253,"116":0.4922483265399933,"117":-0.6753196716308594,"118":-0.02009802870452404,"119":-0.20478129386901855,"120":-0.3316546380519867,"121":0.04608413577079773,"122":-0.22181962430477142,"123":-0.7742772698402405,"124":0.25790733098983765,"125":0.013699752278625965,"126":0.13226965069770813,"127":0.18327565491199493,"128":-0.15738150477409363,"129":0.18848076462745667,"130":-0.3683740198612213,"131":-0.2723182439804077,"132":-0.15832528471946716,"133":0.2671811580657959,"134":-0.7407647967338562,"135":-0.648068368434906,"136":0.12803886830806732,"137":0.14050328731536865,"138":-0.3065665364265442,"139":0.29870814085006714,"140":-0.3178754448890686,"141":-0.09929724782705307,"142":-0.4760642945766449,"143":-1.1813327074050903,"144":0.9045592546463013,"145":-0.03264797478914261,"146":0.0984048843383789,"147":-0.14087997376918793,"148":0.5135103464126587,"149":0.07223811745643616,"150":-0.43485239148139954,"151":-0.346350759267807,"152":-0.22194164991378784,"153":0.37351152300834656,"154":-1.0554707050323486,"155":-0.8799706101417542,"156":-0.17949675023555756,"157":-0.15454624593257904,"158":-0.055558040738105774,"159":0.4590078294277191,"160":-0.04486262425780296,"161":0.46158072352409363,"162":0.47557196021080017,"163":-0.9020903706550598,"164":-0.744055449962616,"165":-0.4521399438381195,"166":0.517122745513916,"167":0.8964630365371704,"168":-1.181860327720642,"169":0.5765835046768188,"170":0.6500004529953003,"171":-1.1882100105285645,"172":-0.8697924017906189,"173":2.1527514457702637,"174":-1.2351194620132446,"175":0.5460849404335022,"176":-0.2765607237815857,"177":0.8023254871368408,"178":-0.11372430622577667,"179":-0.9344515204429626,"180":-0.6126176118850708,"181":-0.3298722505569458,"182":0.14774684607982635,"183":-0.14019213616847992,"184":-0.06564268469810486,"185":-0.055622413754463196,"186":0.620643138885498,"187":0.3988434672355652,"188":0.29555565118789673,"189":0.1582588255405426,"190":0.1938236504793167,"191":-0.1877058446407318,"192":-0.37771961092948914,"193":-0.9140457510948181,"194":-0.37884363532066345,"195":-1.3427388668060303,"196":0.2745376229286194,"197":0.0561484731733799,"198":-0.024708855897188187,"199":-0.31617245078086853,"200":0.44808903336524963,"201":0.2661326229572296,"202":0.24741941690444946,"203":-0.7962125539779663,"204":-0.8506757616996765,"205":-0.8112863302230835,"206":0.6354054808616638,"207":0.4608818590641022,"208":-0.44692739844322205,"209":0.3326002061367035,"210":0.7578461766242981,"211":-0.10401063412427902,"212":0.05858888477087021,"213":0.46312475204467773,"214":-0.5813449621200562,"215":0.2726399898529053,"216":-0.7138776779174805,"217":0.17722325026988983,"218":0.2930179834365845,"219":-1.3432388305664062,"220":-0.5894002914428711,"221":0.15281538665294647,"222":-0.8717507123947144,"223":-0.1349198967218399,"224":1.273551106452942,"225":0.4046343266963959,"226":0.2393886148929596,"227":0.04655013233423233,"228":0.44321033358573914,"229":-0.020974621176719666,"230":-1.1280770301818848,"231":0.20538939535617828,"232":-0.4422954320907593,"233":0.2250715047121048,"234":-0.5231948494911194,"235":-1.3930515050888062,"236":0.5971898436546326,"237":0.1127898171544075,"238":-0.5693732500076294,"239":1.4386813640594482,"240":-0.2373410165309906,"241":-0.6729752421379089,"242":0.2657095789909363,"243":0.006680245045572519,"244":-0.038957759737968445,"245":-0.05784273520112038,"246":0.6939817070960999,"247":0.45995110273361206,"248":0.23738227784633636,"249":-0.1533595323562622,"250":-0.15373973548412323,"251":0.002371360780671239,"252":0.16136345267295837,"253":-0.6325560808181763,"254":-0.06387318670749664,"255":-0.8366873860359192,"256":0.10227696597576141,"257":0.15278081595897675,"258":-0.4701206386089325,"259":0.6488710045814514,"260":0.07936295866966248,"261":-0.24417994916439056,"262":-0.1646871417760849,"263":-1.0021151304244995,"264":0.6237170696258545,"265":1.1845611333847046,"266":0.16706520318984985,"267":0.48734182119369507,"268":0.5530915856361389,"269":0.2106848955154419,"270":-0.40159153938293457,"271":-0.005866839550435543,"272":-0.03376828879117966,"273":0.49097368121147156,"274":-0.7484568953514099,"275":-0.59097820520401,"276":0.19321182370185852,"277":0.014459440484642982,"278":0.1505017727613449,"279":1.3526955842971802,"280":-0.23735411465168,"281":0.10512050241231918,"282":-0.5048853158950806,"283":-0.880044162273407,"284":-0.058346692472696304,"285":1.4142651557922363,"286":0.23921021819114685,"287":0.4913526773452759,"288":-0.0956542044878006,"289":0.5375702381134033,"290":-0.3105585277080536,"291":-0.15684090554714203,"292":-0.589941680431366,"293":0.697191059589386,"294":-0.949743390083313,"295":0.10523055493831635,"296":0.6133497357368469,"297":0.16181467473506927,"298":0.11362796276807785,"299":1.2619569301605225,"300":-0.49262458086013794,"301":0.35022440552711487,"302":-0.2803255319595337,"303":-0.5498369932174683,"304":0.7305243611335754,"305":1.400718331336975,"306":-0.6048566699028015,"307":-0.2362307459115982,"308":0.20411165058612823,"309":0.6251691579818726,"310":-1.2205750942230225,"311":1.5874453783035278,"312":-0.5634812712669373,"313":-0.6602675914764404,"314":-0.4931035339832306,"315":-0.18001246452331543,"316":0.3526187837123871,"317":0.40853673219680786,"318":-0.2163204848766327,"319":1.7963948249816895,"320":0.13470113277435303,"321":0.3287084996700287,"322":0.3468472957611084,"323":-0.9125431180000305,"324":1.059541940689087,"325":-0.24290746450424194,"326":0.07799721509218216,"327":-0.2682349383831024,"328":0.6044207811355591,"329":-0.5826310515403748,"330":0.21325242519378662,"331":0.05375877767801285,"332":0.26783210039138794,"333":-0.32612112164497375,"334":0.7975848317146301,"335":0.20686417818069458,"336":-0.9707338809967041,"337":-0.37844350934028625,"338":-0.6105644702911377,"339":-0.3029901683330536,"340":0.5966798067092896,"341":-0.35793381929397583,"342":0.2724889814853668,"343":-0.43684661388397217,"344":0.42725178599357605,"345":0.6382172107696533,"346":0.16011834144592285,"347":0.2380027323961258,"348":0.3948041796684265,"349":0.05646389350295067,"350":-0.6088525652885437,"351":-0.6672072410583496,"352":-0.40047401189804077,"353":1.2728255987167358,"354":-0.5231667757034302,"355":0.9031984210014343,"356":-0.05883854255080223,"357":0.44331783056259155,"358":-0.1488545835018158,"359":-0.184589222073555,"360":0.11433979868888855,"361":0.2920496165752411,"362":-0.2073666900396347,"363":-0.31318724155426025,"364":-0.11776505410671234,"365":-0.12922953069210052,"366":-0.11138994991779327,"367":-0.3594092130661011,"368":0.06729227304458618,"369":-0.041219890117645264,"370":0.6666083931922913,"371":-0.48122069239616394,"372":-0.3277103006839752,"373":0.24256421625614166,"374":-0.39067792892456055,"375":-0.3179204761981964,"376":-0.5309114456176758,"377":0.4867601990699768,"378":-0.4784908890724182,"379":0.09556831419467926,"380":-0.11974989622831345,"381":-0.33740517497062683,"382":0.31903937458992004,"383":0.33771127462387085,"384":0.05867818370461464,"385":-0.6411120295524597,"386":0.3930980861186981,"387":0.019256336614489555,"388":-0.18625199794769287,"389":-0.668225884437561,"390":1.0443593263626099,"391":0.1542298048734665,"392":0.7020924687385559,"393":-1.3450971841812134,"394":0.5719985961914062,"395":-0.19681553542613983,"396":-1.146720051765442,"397":-0.5960390567779541,"398":-0.06077057868242264,"399":-0.10863424837589264}},"updateGateBias":{"rows":20,"columns":1,"weights":{"0":0,"1":0,"2":0,"3":0,"4":0,"5":0,"6":0,"7":0,"8":0,"9":0,"10":0,"11":0,"12":0,"13":0,"14":0,"15":0,"16":0,"17":0,"18":0,"19":0}},"resetGateInputMatrix":{"rows":20,"columns":1,"weights":{"0":0.7942601442337036,"1":-0.02475021220743656,"2":0.21603786945343018,"3":0.6387573480606079,"4":0.5511021018028259,"5":0.6818844079971313,"6":0.03738933429121971,"7":-0.08578593283891678,"8":0.3031023442745209,"9":-0.7861136198043823,"10":0.4328692853450775,"11":0.42606663703918457,"12":-0.5461090803146362,"13":0.1676359921693802,"14":0.4997692108154297,"15":-0.6652865409851074,"16":0.792533814907074,"17":0.5083103775978088,"18":-0.3588469326496124,"19":1.0987647771835327}},"resetGateHiddenMatrix":{"rows":20,"columns":20,"weights":{"0":-0.247905433177948,"1":0.19812403619289398,"2":-0.7801862955093384,"3":-0.4374946355819702,"4":0.5469750165939331,"5":1.6680508852005005,"6":-0.23720888793468475,"7":-0.26300159096717834,"8":0.17280492186546326,"9":-0.1135849580168724,"10":-0.36882272362709045,"11":1.3946223258972168,"12":-0.16246773302555084,"13":-0.4295675456523895,"14":0.09258056432008743,"15":0.07279075682163239,"16":-0.1075679361820221,"17":-0.13707107305526733,"18":0.19505104422569275,"19":1.357715129852295,"20":1.0767406225204468,"21":-0.35505741834640503,"22":0.6261444091796875,"23":0.025534916669130325,"24":-0.3753535747528076,"25":-0.2979435324668884,"26":-0.14202722907066345,"27":-0.12170082330703735,"28":-0.022094694897532463,"29":-0.21198925375938416,"30":0.8670355081558228,"31":0.40648961067199707,"32":0.5479968190193176,"33":-0.7015841007232666,"34":-0.18703103065490723,"35":0.4208332300186157,"36":-1.016431450843811,"37":0.16685956716537476,"38":0.6369090676307678,"39":-0.7223024964332581,"40":0.4145744740962982,"41":0.08965157717466354,"42":-0.09209448844194412,"43":-0.19347238540649414,"44":-0.07588410377502441,"45":-0.43132612109184265,"46":0.016150129958987236,"47":0.03345624357461929,"48":-0.30333301424980164,"49":0.09419217705726624,"50":0.4650923013687134,"51":0.20144867897033691,"52":-0.20719636976718903,"53":-0.10990718007087708,"54":-0.6670518517494202,"55":-0.09043341875076294,"56":-0.6802353262901306,"57":0.25153419375419617,"58":0.12488669157028198,"59":-0.14201533794403076,"60":0.5832604169845581,"61":-0.07598257809877396,"62":-0.4774286448955536,"63":-1.2558841705322266,"64":0.013183243572711945,"65":1.563880443572998,"66":0.1642836481332779,"67":0.6372529864311218,"68":-0.44698017835617065,"69":0.4709266126155853,"70":-0.13126544654369354,"71":1.140089988708496,"72":-1.5752652883529663,"73":0.3527725636959076,"74":-0.7526465654373169,"75":0.20656561851501465,"76":0.09248153865337372,"77":0.9179819822311401,"78":0.5250853300094604,"79":1.220816969871521,"80":-0.22301167249679565,"81":-0.6465759873390198,"82":0.6387506127357483,"83":0.5956639647483826,"84":-1.0499870777130127,"85":-0.16856998205184937,"86":1.3104420900344849,"87":1.2460541725158691,"88":-1.1158427000045776,"89":-0.26640284061431885,"90":0.011728399433195591,"91":-0.9581571221351624,"92":-0.4228018820285797,"93":1.4823501110076904,"94":-0.916382372379303,"95":-0.007301708683371544,"96":0.21899613738059998,"97":-0.07238055765628815,"98":-0.45752543210983276,"99":-0.6558769941329956,"100":-1.5135819911956787,"101":-0.2489165961742401,"102":-0.4386937618255615,"103":0.19603231549263,"104":0.800194263458252,"105":0.07453006505966187,"106":0.07853900641202927,"107":0.11947709321975708,"108":1.378204107284546,"109":-0.8750937581062317,"110":-1.667151927947998,"111":1.0277211666107178,"112":0.8678388595581055,"113":-1.783876895904541,"114":1.532576084136963,"115":-1.0887641906738281,"116":0.660461962223053,"117":-1.428475022315979,"118":-1.0083138942718506,"119":0.39071279764175415,"120":0.5616719126701355,"121":0.49763908982276917,"122":-0.6309945583343506,"123":-0.3004772663116455,"124":-1.2960726022720337,"125":0.36578643321990967,"126":0.0671129822731018,"127":0.3444274067878723,"128":-2.424819231033325,"129":0.4337782859802246,"130":2.118304491043091,"131":0.763591468334198,"132":-0.52277010679245,"133":-0.5399819612503052,"134":-0.7676399350166321,"135":-0.09639763832092285,"136":-0.1899443417787552,"137":0.744870662689209,"138":1.1374341249465942,"139":-0.051492560654878616,"140":0.6821095943450928,"141":0.5207811594009399,"142":-0.7021312117576599,"143":0.26380759477615356,"144":-1.7078808546066284,"145":-1.5234624147415161,"146":0.6038395166397095,"147":0.5345357060432434,"148":-2.2772083282470703,"149":0.15204359591007233,"150":1.7972737550735474,"151":0.7756612300872803,"152":-0.22417908906936646,"153":-0.3799588978290558,"154":-0.2588953673839569,"155":0.27897870540618896,"156":-0.26083505153656006,"157":-0.07570499926805496,"158":0.7058476805686951,"159":-0.6536598801612854,"160":-0.40064066648483276,"161":-1.2811660766601562,"162":0.4379250109195709,"163":0.9409233927726746,"164":-1.073785662651062,"165":-0.5397632718086243,"166":1.4243290424346924,"167":1.1252721548080444,"168":-0.2755941152572632,"169":-0.781042218208313,"170":-0.2784421741962433,"171":-0.4697592258453369,"172":0.26731598377227783,"173":0.14040768146514893,"174":-0.029752984642982483,"175":-0.46927857398986816,"176":0.16033904254436493,"177":-0.666771650314331,"178":-0.6613972187042236,"179":-0.6574187278747559,"180":0.08187298476696014,"181":0.23062042891979218,"182":-0.10031142085790634,"183":0.22322390973567963,"184":-0.39595234394073486,"185":-1.0461618900299072,"186":0.18156930804252625,"187":-0.22102032601833344,"188":-0.5893392562866211,"189":0.02413296513259411,"190":0.7190223336219788,"191":0.13389766216278076,"192":-0.2534480392932892,"193":-1.3505138158798218,"194":0.025411799550056458,"195":-0.2627430558204651,"196":-0.42270228266716003,"197":0.0723458006978035,"198":-0.24658392369747162,"199":-1.0542558431625366,"200":-0.22104276716709137,"201":-0.4492160975933075,"202":-0.5981009602546692,"203":0.28231117129325867,"204":-0.24899069964885712,"205":1.4917335510253906,"206":-0.4881082773208618,"207":-0.3806905150413513,"208":0.4809736907482147,"209":-0.6456837058067322,"210":-0.7874407768249512,"211":2.098069190979004,"212":-0.24637533724308014,"213":-1.352356195449829,"214":0.800279438495636,"215":0.02863026037812233,"216":0.11409740895032883,"217":-0.7876036763191223,"218":-0.28137102723121643,"219":1.7882535457611084,"220":-0.5189886093139648,"221":0.17499391734600067,"222":-0.9403825998306274,"223":-0.3474506437778473,"224":0.9988934397697449,"225":0.3477781414985657,"226":0.22464323043823242,"227":0.2206009030342102,"228":0.6120211482048035,"229":-0.08725713193416595,"230":-1.3178025484085083,"231":0.16100354492664337,"232":-0.6869916915893555,"233":0.26025813817977905,"234":-0.4049709141254425,"235":-1.0616340637207031,"236":0.8354870676994324,"237":0.04130978882312775,"238":-0.6342631578445435,"239":1.1495401859283447,"240":0.18852007389068604,"241":-1.1095845699310303,"242":0.8949657082557678,"243":1.7232248783111572,"244":-0.08167628198862076,"245":-1.5650392770767212,"246":-0.09121706336736679,"247":-0.29850274324417114,"248":-0.137191504240036,"249":-0.4539536237716675,"250":0.9503774642944336,"251":0.01371296402066946,"252":0.9095739722251892,"253":-1.6301826238632202,"254":0.5475731492042542,"255":-0.7640819549560547,"256":-0.7600231766700745,"257":-0.17188496887683868,"258":0.14826615154743195,"259":-0.7659753561019897,"260":0.07898883521556854,"261":-0.14285412430763245,"262":-0.17194925248622894,"263":-0.6928627490997314,"264":0.770865797996521,"265":1.044399619102478,"266":0.08014310896396637,"267":0.14264637231826782,"268":0.8616353869438171,"269":-0.18945805728435516,"270":-0.729086697101593,"271":-0.09965091943740845,"272":-0.034097541123628616,"273":0.22079356014728546,"274":-0.5813235640525818,"275":-0.5637484192848206,"276":-0.2598416805267334,"277":0.06975243240594864,"278":-0.22567817568778992,"279":1.7552075386047363,"280":-0.5400325059890747,"281":-0.13978838920593262,"282":-0.20471176505088806,"283":0.9266799688339233,"284":0.033629704266786575,"285":0.8359842300415039,"286":-0.16470365226268768,"287":-0.2897748053073883,"288":0.4237430989742279,"289":0.23670385777950287,"290":-1.2554996013641357,"291":0.08252032101154327,"292":-0.1943720281124115,"293":-0.29747429490089417,"294":-0.4045700132846832,"295":-1.375160813331604,"296":1.18758225440979,"297":-0.09927694499492645,"298":0.027986863628029823,"299":0.990623950958252,"300":-1.3055980205535889,"301":-0.4624640941619873,"302":0.3716219663619995,"303":2.192631244659424,"304":0.61317378282547,"305":1.1476918458938599,"306":-0.7525502443313599,"307":-1.4479604959487915,"308":0.8663903474807739,"309":-1.5496238470077515,"310":-0.15271073579788208,"311":1.9499696493148804,"312":1.6101115942001343,"313":-2.1880383491516113,"314":0.5649881958961487,"315":-1.4797505140304565,"316":0.2358560562133789,"317":-0.7252228856086731,"318":-0.3023228943347931,"319":2.3034095764160156,"320":0.03191746026277542,"321":0.006840849295258522,"322":-0.07393695414066315,"323":-0.16144943237304688,"324":0.5817777514457703,"325":0.9100314974784851,"326":-0.19257155060768127,"327":-0.052547380328178406,"328":0.5220182538032532,"329":-0.7352869510650635,"330":0.21433205902576447,"331":1.44064462184906,"332":0.29006800055503845,"333":-0.876878559589386,"334":1.0000642538070679,"335":0.6172165870666504,"336":-0.7070189714431763,"337":0.06891535222530365,"338":-0.26351699233055115,"339":0.7884093523025513,"340":0.3754667043685913,"341":-0.19953158497810364,"342":0.08571480214595795,"343":-0.12317240238189697,"344":0.2006959319114685,"345":0.7758170366287231,"346":-0.21485456824302673,"347":-0.22869305312633514,"348":0.33233484625816345,"349":-0.1278466433286667,"350":-0.8085857629776001,"351":0.1405051052570343,"352":-0.14264099299907684,"353":0.4580727219581604,"354":-0.18274159729480743,"355":0.47680291533470154,"356":-0.10302089899778366,"357":0.051009401679039,"358":0.04260905832052231,"359":0.7646881341934204,"360":0.4637794494628906,"361":0.02449088729918003,"362":-0.05071280896663666,"363":0.1961740255355835,"364":-0.038077548146247864,"365":-0.26365917921066284,"366":0.050731901079416275,"367":-0.2513296604156494,"368":0.11623818427324295,"369":-0.21099312603473663,"370":0.5904411673545837,"371":-0.31263911724090576,"372":-0.24735626578330994,"373":-0.5687695741653442,"374":-0.0975223034620285,"375":-0.15945807099342346,"376":-0.9713871479034424,"377":0.6265953779220581,"378":-0.27519330382347107,"379":-0.35182029008865356,"380":-0.7788099050521851,"381":-0.3172556757926941,"382":-0.8770171999931335,"383":-0.6088013052940369,"384":0.23613403737545013,"385":0.3408999741077423,"386":0.11671847850084305,"387":0.36812254786491394,"388":1.3365463018417358,"389":-0.7150421738624573,"390":-2.3540236949920654,"391":1.590118169784546,"392":0.19023193418979645,"393":-0.3088137209415436,"394":0.8415824174880981,"395":-0.33673226833343506,"396":0.3249357044696808,"397":-0.8969358205795288,"398":-1.0773850679397583,"399":0.9549015164375305}},"resetGateBias":{"rows":20,"columns":1,"weights":{"0":0,"1":0,"2":0,"3":0,"4":0,"5":0,"6":0,"7":0,"8":0,"9":0,"10":0,"11":0,"12":0,"13":0,"14":0,"15":0,"16":0,"17":0,"18":0,"19":0}},"cellWriteInputMatrix":{"rows":20,"columns":1,"weights":{"0":-0.5751187801361084,"1":0.028233109042048454,"2":-0.6553237438201904,"3":-0.10488564521074295,"4":-0.1490124613046646,"5":0.5979006886482239,"6":0.22026239335536957,"7":-0.1294858604669571,"8":-0.12212786823511124,"9":-0.3771785497665405,"10":-0.41667813062667847,"11":0.3177873194217682,"12":-0.11829159408807755,"13":-0.11176599562168121,"14":0.6332277655601501,"15":-0.44106435775756836,"16":0.3813393712043762,"17":-0.3388504981994629,"18":-0.2672932744026184,"19":1.3305171728134155}},"cellWriteHiddenMatrix":{"rows":20,"columns":20,"weights":{"0":-0.3235490024089813,"1":0.1099592000246048,"2":-0.17630058526992798,"3":0.9588278532028198,"4":-0.3812846839427948,"5":-0.09470254182815552,"6":-0.06662178039550781,"7":-0.03563648834824562,"8":-0.6053178310394287,"9":-0.20065340399742126,"10":-0.10136483609676361,"11":0.13247476518154144,"12":-0.0482378713786602,"13":-0.3307068645954132,"14":-0.24015289545059204,"15":-0.5590795278549194,"16":0.4459340572357178,"17":-0.10099787265062332,"18":0.0014189083594828844,"19":-0.05298205465078354,"20":-0.3108178377151489,"21":0.25314444303512573,"22":-0.43723559379577637,"23":0.9173430800437927,"24":-1.3854360580444336,"25":-0.4894088804721832,"26":0.6569244861602783,"27":0.8673033714294434,"28":-1.7391036748886108,"29":0.1453312337398529,"30":-0.5045142769813538,"31":0.4862982928752899,"32":-0.9713566303253174,"33":-0.5544739365577698,"34":0.4569171369075775,"35":-0.7385271191596985,"36":0.08087843656539917,"37":-0.05950978398323059,"38":0.1962193250656128,"39":-0.14774583280086517,"40":0.37290194630622864,"41":0.2749492824077606,"42":0.09962625056505203,"43":-0.04932674020528793,"44":0.9600443243980408,"45":0.3315833508968353,"46":-0.35081249475479126,"47":-0.32445991039276123,"48":1.2553573846817017,"49":-0.3206215798854828,"50":-0.12672725319862366,"51":-0.38711291551589966,"52":0.13615620136260986,"53":0.41198021173477173,"54":0.0490507148206234,"55":0.4447939097881317,"56":-0.08586153388023376,"57":0.3684774339199066,"58":-0.31463730335235596,"59":0.01709866337478161,"60":-0.9267182946205139,"61":0.14049845933914185,"62":-0.27966737747192383,"63":-1.4724974632263184,"64":0.716919481754303,"65":0.1825268268585205,"66":0.05483030527830124,"67":-0.09160340577363968,"68":0.7962663173675537,"69":0.2611442804336548,"70":-0.4606659412384033,"71":0.7182638049125671,"72":0.8220221996307373,"73":-0.26129910349845886,"74":0.6312987804412842,"75":-1.7513726949691772,"76":0.856212317943573,"77":-0.2372225821018219,"78":-0.14065639674663544,"79":0.32594752311706543,"80":1.0579164028167725,"81":0.2744441628456116,"82":-0.12492531538009644,"83":0.42850273847579956,"84":0.4723412096500397,"85":-0.5134996771812439,"86":-0.6229164600372314,"87":-0.33485907316207886,"88":0.051963698118925095,"89":0.32360008358955383,"90":0.5499973297119141,"91":-0.7802473902702332,"92":-0.3033263385295868,"93":0.5802303552627563,"94":-0.35842910408973694,"95":1.1869937181472778,"96":-0.7431914806365967,"97":0.5662040114402771,"98":0.010105475783348083,"99":-0.4433126151561737,"100":1.1854937076568604,"101":1.248329520225525,"102":-0.7497373819351196,"103":0.04371974989771843,"104":0.047045353800058365,"105":-0.34691718220710754,"106":-1.5050513744354248,"107":-0.8489429354667664,"108":0.136882945895195,"109":1.1863007545471191,"110":0.26173603534698486,"111":0.3510703146457672,"112":-0.9867047667503357,"113":-0.12518170475959778,"114":-0.628261148929596,"115":1.258913516998291,"116":-0.6247068643569946,"117":0.7107972502708435,"118":0.7709077000617981,"119":-0.8693189024925232,"120":0.5639943480491638,"121":-0.5398379564285278,"122":0.871566116809845,"123":-0.6233932375907898,"124":-0.034922439604997635,"125":-0.37542808055877686,"126":0.40808165073394775,"127":0.043486904352903366,"128":-0.10308752208948135,"129":-0.4721972644329071,"130":1.0029752254486084,"131":-1.063462495803833,"132":0.5438090562820435,"133":0.3682388663291931,"134":-0.14087256789207458,"135":0.822725236415863,"136":-0.8289583325386047,"137":0.22242727875709534,"138":-0.21746070683002472,"139":-0.699451208114624,"140":0.06353560090065002,"141":0.015197974629700184,"142":0.23645402491092682,"143":-0.650074303150177,"144":0.09371545165777206,"145":-0.714888870716095,"146":0.31728607416152954,"147":0.04736115783452988,"148":-0.05046193674206734,"149":-0.2210172563791275,"150":0.1374925822019577,"151":-0.9727873802185059,"152":0.06099596247076988,"153":1.0873891115188599,"154":-0.29147571325302124,"155":0.7110399603843689,"156":-0.3744054138660431,"157":0.3979016840457916,"158":-0.43299219012260437,"159":-0.43306201696395874,"160":1.3620567321777344,"161":0.0652884691953659,"162":-0.03772605210542679,"163":0.08055391162633896,"164":0.3806529641151428,"165":-0.44180774688720703,"166":-0.3995068073272705,"167":-0.6595668196678162,"168":0.0005837203934788704,"169":0.18472792208194733,"170":1.187973141670227,"171":-0.6140325665473938,"172":-0.33448055386543274,"173":0.40326109528541565,"174":-0.3570486307144165,"175":1.6774474382400513,"176":-1.221096396446228,"177":0.7134676575660706,"178":0.5132061243057251,"179":-0.4522816240787506,"180":-0.3990784287452698,"181":0.21504350006580353,"182":-0.5774635672569275,"183":0.07324140518903732,"184":-0.6778029799461365,"185":-0.11418319493532181,"186":0.40266600251197815,"187":0.36573687195777893,"188":-1.101968765258789,"189":0.29937902092933655,"190":-0.82770836353302,"191":0.02032378874719143,"192":-0.5606709122657776,"193":1.04080331325531,"194":-0.29930660128593445,"195":-0.665530264377594,"196":0.7940765023231506,"197":0.06708678603172302,"198":-0.12421166151762009,"199":-0.05092893913388252,"200":0.15849967300891876,"201":-0.46729037165641785,"202":0.35775160789489746,"203":0.010495451278984547,"204":-0.2753773629665375,"205":1.009644627571106,"206":0.39062952995300293,"207":0.32656267285346985,"208":0.024364087730646133,"209":-0.5558450222015381,"210":-0.5620595812797546,"211":0.49994251132011414,"212":0.5844701528549194,"213":-0.28368818759918213,"214":0.4314820170402527,"215":-0.2429705113172531,"216":0.6821304559707642,"217":-0.16378864645957947,"218":-0.0766490250825882,"219":0.7800309658050537,"220":-0.0307816993445158,"221":-0.07297321408987045,"222":0.026359274983406067,"223":-0.3455478847026825,"224":-0.07285790890455246,"225":0.3667011857032776,"226":0.02828875742852688,"227":0.01011903490871191,"228":-0.0017725354991853237,"229":0.3209078907966614,"230":-0.0159392561763525,"231":0.24444693326950073,"232":0.007917134091258049,"233":-0.278042733669281,"234":0.44575902819633484,"235":-0.42667341232299805,"236":0.01906631328165531,"237":-0.02755688689649105,"238":0.282716304063797,"239":0.1031281128525734,"240":0.6827639937400818,"241":-0.5695750713348389,"242":0.1473436951637268,"243":0.2658526599407196,"244":0.6849887371063232,"245":0.2241591066122055,"246":-0.6611204743385315,"247":-0.6591688990592957,"248":1.1676034927368164,"249":-0.6067022085189819,"250":0.5124713182449341,"251":0.354036420583725,"252":0.8773766756057739,"253":-0.7911326289176941,"254":0.5119186639785767,"255":0.5990958213806152,"256":-0.8967388272285461,"257":-0.40412279963493347,"258":0.06332012265920639,"259":0.45195138454437256,"260":0.2650841772556305,"261":0.45449721813201904,"262":-0.4942440092563629,"263":0.04116421565413475,"264":-0.381351500749588,"265":-0.7731135487556458,"266":0.06404650211334229,"267":0.16217656433582306,"268":-0.5775923728942871,"269":-0.187143012881279,"270":0.12856408953666687,"271":-0.19445322453975677,"272":-0.28802886605262756,"273":0.1764344871044159,"274":-0.2722296714782715,"275":0.3656039535999298,"276":-0.47147244215011597,"277":0.19209985435009003,"278":-0.1397617757320404,"279":-0.3920191824436188,"280":0.4657052159309387,"281":-0.3497399091720581,"282":0.6818519830703735,"283":0.08359432220458984,"284":0.46238628029823303,"285":0.36723852157592773,"286":-0.2795974910259247,"287":-0.524922251701355,"288":0.7427537441253662,"289":-0.47210216522216797,"290":-0.4269905388355255,"291":-0.1169826090335846,"292":0.8361730575561523,"293":-0.4834194779396057,"294":0.6684892177581787,"295":-0.22692759335041046,"296":-0.6298861503601074,"297":0.07487371563911438,"298":-0.3397061228752136,"299":0.31529471278190613,"300":0.17857567965984344,"301":0.4735158085823059,"302":-0.2795005738735199,"303":0.5396355390548706,"304":-0.31888195872306824,"305":-0.5045788884162903,"306":-0.24142102897167206,"307":-0.3419053256511688,"308":-0.13645681738853455,"309":-0.2834233343601227,"310":0.20248371362686157,"311":-0.09369798749685287,"312":-0.07700962573289871,"313":-0.25062239170074463,"314":-0.38581231236457825,"315":0.028066890314221382,"316":-0.38792312145233154,"317":0.3072400987148285,"318":-0.09393562376499176,"319":-0.38375285267829895,"320":0.07712788879871368,"321":0.03611764311790466,"322":-0.416024774312973,"323":-0.8395516872406006,"324":0.01895085722208023,"325":-0.12319377064704895,"326":-0.056652139872312546,"327":0.36379191279411316,"328":0.038072798401117325,"329":0.1487935185432434,"330":-0.12199649959802628,"331":-0.14645059406757355,"332":-0.27247533202171326,"333":0.5726312398910522,"334":0.11799260228872299,"335":0.26506516337394714,"336":-0.25287315249443054,"337":-0.04288183152675629,"338":0.3882433772087097,"339":-0.026772191748023033,"340":-0.000406917737564072,"341":-0.07685790210962296,"342":-0.14807681739330292,"343":0.24510803818702698,"344":-0.42487430572509766,"345":0.13178212940692902,"346":0.38760051131248474,"347":0.3697569966316223,"348":-0.6822729706764221,"349":0.01955857127904892,"350":0.25099286437034607,"351":-0.2484828382730484,"352":-0.15616394579410553,"353":0.2200416475534439,"354":-0.3670963943004608,"355":0.1678076982498169,"356":0.2535741627216339,"357":0.02316507324576378,"358":-0.08352362364530563,"359":-0.1647607386112213,"360":-0.4022311568260193,"361":0.13465140759944916,"362":-0.26817530393600464,"363":-0.1263519674539566,"364":0.14778858423233032,"365":0.49963024258613586,"366":-0.4066859185695648,"367":-0.14391875267028809,"368":0.22104956209659576,"369":0.3694438934326172,"370":-0.9579549431800842,"371":0.840143620967865,"372":-0.1395813524723053,"373":-0.28010493516921997,"374":0.18567994236946106,"375":-0.8058450818061829,"376":0.8493821024894714,"377":-0.4006945788860321,"378":0.40854600071907043,"379":0.5971813201904297,"380":0.546707272529602,"381":0.7602490782737732,"382":0.14934596419334412,"383":0.5653340816497803,"384":-0.0013084108941257,"385":-0.35054275393486023,"386":-0.9583293199539185,"387":-0.36111992597579956,"388":0.5722036361694336,"389":0.5820901989936829,"390":0.9398021101951599,"391":-0.13470667600631714,"392":-0.6168896555900574,"393":0.082770437002182,"394":-0.5848976373672485,"395":1.0231298208236694,"396":-1.088135838508606,"397":0.4459199607372284,"398":0.23142245411872864,"399":-0.861056387424469}},"cellWriteBias":{"rows":20,"columns":1,"weights":{"0":0.8867820501327515,"1":-0.854810893535614,"2":0.06610062718391418,"3":0.7415429949760437,"4":-0.7078421711921692,"5":-0.17125989496707916,"6":-0.17927812039852142,"7":0.6479477882385254,"8":-0.6615973711013794,"9":0.29122689366340637,"10":0.19960488379001617,"11":0.10892696678638458,"12":-0.6572296619415283,"13":-0.4539991617202759,"14":0.0687379315495491,"15":0.7280881404876709,"16":-0.6680639982223511,"17":-0.19691915810108185,"18":1.084045648574829,"19":-0.6431722640991211}}}],"outputConnector":{"rows":1,"columns":20,"weights":{"0":0.2673584818840027,"1":-0.41159525513648987,"2":0.7292501330375671,"3":-0.2983945906162262,"4":0.30994704365730286,"5":0.555523693561554,"6":0.4851597249507904,"7":0.4967102110385895,"8":0.04998738318681717,"9":-0.09619618952274323,"10":-0.0008372697629965842,"11":-1.020383596420288,"12":0.0977146327495575,"13":1.021142840385437,"14":-0.6830762624740601,"15":0.8922293186187744,"16":-0.4200385510921478,"17":0.2701927721500397,"18":-0.18649660050868988,"19":-0.10732296854257584}},"output":{"rows":1,"columns":1,"weights":{"0":0.3434244692325592}},"inputLookup":null,"inputLookupLength":null,"outputLookup":null,"outputLookupLength":null},"metadata":{"dataPoints":24,"minSales":6548161.2,"maxSales":13845221.28,"range":7297060.079999999,"trainingParams":{"errorThreshold":0.0001,"actualIterations":100000},"lastSalesDate":{"year":2024,"month":12},"createdAt":"2025-04-25T05-48-37-625Z","modelType":"GRUTimeStep"}}